{"learner":{"attributes":{"best_iteration":"432","best_score":"0.9999185572521635","scikit_learn":"{\"_estimator_type\": \"classifier\"}"},"feature_names":["amount","amount_log","day_of_week","month","is_weekend","is_round_amount","client_amount_mean","client_amount_std","client_amount_min","client_amount_count","amount_deviation_from_mean","is_unusual_amount","client_trans_count","client_unique_recipients","recipient_popularity","recipient_avg_amount","is_rare_recipient","logins_last_30_days","login_frequency_30d","freq_change_7d_vs_mean","logins_7d_over_30d_ratio","avg_login_interval_30d","std_login_interval_30d","login_spike","device_changed_recently","low_activity","login_to_trans_ratio","last_os_categorical_encoded","time_of_day_encoded","amount_category_encoded"],"feature_types":["float","float","float","float","float","float","float","float","float","float","float","float","float","float","float","float","float","float","float","float","float","float","float","float","float","float","float","float","float","float"],"gradient_booster":{"model":{"gbtree_model_param":{"num_parallel_tree":"1","num_trees":"533"},"iteration_indptr":[0,1,2,3,4,5,6,7,8,9,10,11,12,13,14,15,16,17,18,19,20,21,22,23,24,25,26,27,28,29,30,31,32,33,34,35,36,37,38,39,40,41,42,43,44,45,46,47,48,49,50,51,52,53,54,55,56,57,58,59,60,61,62,63,64,65,66,67,68,69,70,71,72,73,74,75,76,77,78,79,80,81,82,83,84,85,86,87,88,89,90,91,92,93,94,95,96,97,98,99,100,101,102,103,104,105,106,107,108,109,110,111,112,113,114,115,116,117,118,119,120,121,122,123,124,125,126,127,128,129,130,131,132,133,134,135,136,137,138,139,140,141,142,143,144,145,146,147,148,149,150,151,152,153,154,155,156,157,158,159,160,161,162,163,164,165,166,167,168,169,170,171,172,173,174,175,176,177,178,179,180,181,182,183,184,185,186,187,188,189,190,191,192,193,194,195,196,197,198,199,200,201,202,203,204,205,206,207,208,209,210,211,212,213,214,215,216,217,218,219,220,221,222,223,224,225,226,227,228,229,230,231,232,233,234,235,236,237,238,239,240,241,242,243,244,245,246,247,248,249,250,251,252,253,254,255,256,257,258,259,260,261,262,263,264,265,266,267,268,269,270,271,272,273,274,275,276,277,278,279,280,281,282,283,284,285,286,287,288,289,290,291,292,293,294,295,296,297,298,299,300,301,302,303,304,305,306,307,308,309,310,311,312,313,314,315,316,317,318,319,320,321,322,323,324,325,326,327,328,329,330,331,332,333,334,335,336,337,338,339,340,341,342,343,344,345,346,347,348,349,350,351,352,353,354,355,356,357,358,359,360,361,362,363,364,365,366,367,368,369,370,371,372,373,374,375,376,377,378,379,380,381,382,383,384,385,386,387,388,389,390,391,392,393,394,395,396,397,398,399,400,401,402,403,404,405,406,407,408,409,410,411,412,413,414,415,416,417,418,419,420,421,422,423,424,425,426,427,428,429,430,431,432,433,434,435,436,437,438,439,440,441,442,443,444,445,446,447,448,449,450,451,452,453,454,455,456,457,458,459,460,461,462,463,464,465,466,467,468,469,470,471,472,473,474,475,476,477,478,479,480,481,482,483,484,485,486,487,488,489,490,491,492,493,494,495,496,497,498,499,500,501,502,503,504,505,506,507,508,509,510,511,512,513,514,515,516,517,518,519,520,521,522,523,524,525,526,527,528,529,530,531,532,533],"tree_info":[0,0,0,0,0,0,0,0,0,0,0,0,0,0,0,0,0,0,0,0,0,0,0,0,0,0,0,0,0,0,0,0,0,0,0,0,0,0,0,0,0,0,0,0,0,0,0,0,0,0,0,0,0,0,0,0,0,0,0,0,0,0,0,0,0,0,0,0,0,0,0,0,0,0,0,0,0,0,0,0,0,0,0,0,0,0,0,0,0,0,0,0,0,0,0,0,0,0,0,0,0,0,0,0,0,0,0,0,0,0,0,0,0,0,0,0,0,0,0,0,0,0,0,0,0,0,0,0,0,0,0,0,0,0,0,0,0,0,0,0,0,0,0,0,0,0,0,0,0,0,0,0,0,0,0,0,0,0,0,0,0,0,0,0,0,0,0,0,0,0,0,0,0,0,0,0,0,0,0,0,0,0,0,0,0,0,0,0,0,0,0,0,0,0,0,0,0,0,0,0,0,0,0,0,0,0,0,0,0,0,0,0,0,0,0,0,0,0,0,0,0,0,0,0,0,0,0,0,0,0,0,0,0,0,0,0,0,0,0,0,0,0,0,0,0,0,0,0,0,0,0,0,0,0,0,0,0,0,0,0,0,0,0,0,0,0,0,0,0,0,0,0,0,0,0,0,0,0,0,0,0,0,0,0,0,0,0,0,0,0,0,0,0,0,0,0,0,0,0,0,0,0,0,0,0,0,0,0,0,0,0,0,0,0,0,0,0,0,0,0,0,0,0,0,0,0,0,0,0,0,0,0,0,0,0,0,0,0,0,0,0,0,0,0,0,0,0,0,0,0,0,0,0,0,0,0,0,0,0,0,0,0,0,0,0,0,0,0,0,0,0,0,0,0,0,0,0,0,0,0,0,0,0,0,0,0,0,0,0,0,0,0,0,0,0,0,0,0,0,0,0,0,0,0,0,0,0,0,0,0,0,0,0,0,0,0,0,0,0,0,0,0,0,0,0,0,0,0,0,0,0,0,0,0,0,0,0,0,0,0,0,0,0,0,0,0,0,0,0,0,0,0,0,0,0,0,0,0,0,0,0,0,0,0,0,0,0,0,0,0,0,0,0,0,0,0,0,0,0,0,0,0,0,0,0,0,0,0,0,0,0,0,0,0,0,0,0,0,0,0,0,0,0,0,0,0,0,0,0,0,0,0,0,0,0,0,0,0,0,0,0,0,0,0,0,0,0,0,0,0,0,0,0],"trees":[{"base_weights":[1.4703998E-2,-1.7778926E0,1.5718305E0,-1.8183341E0,1.3841962E0,-1.7285514E0,1.7184922E0,-1.8905706E0,-3.7755102E-1,-4.7419354E-2,5.941368E-2,3.588785E-2,-1.9650722E0,-1.770129E-1,1.820002E0,1.0053476E0,-1.9104863E0,1.8782288E0,-1.8485577E0,-5.985565E-2,-4.0833335E-2,-5.9717424E-2,9.858871E-1,1.8542712E0,-5.9338234E-2,-7.5E-3,5.333333E-2,-5.9991524E-2,-1.5865008E0,5.961039E-2,3.5853658E-2,-5.8983047E-2,-1.2537314E-2,-5.8922153E-2,1.5816203E0,1.8638772E0,-5.04878E-2,5.93617E-2,-1.7662431E0,-1.1176471E-2,1.8541954E0,1.9019706E0,1.3293473E0,-5.97099E-2,-1.4350961E-2,5.874598E-2,3.588785E-2,4.943787E-2,5.8600634E-2,-5.823529E-2,4.5117985E-2],"categories":[],"categories_nodes":[],"categories_segments":[],"categories_sizes":[],"default_left":[0,0,0,0,0,0,0,0,0,0,0,0,0,0,0,0,0,0,0,0,0,0,0,0,0,0,0,0,0,0,0,0,0,0,0,0,0,0,0,0,0,0,0,0,0,0,0,0,0,0,0],"id":0,"left_children":[1,3,5,7,9,11,13,15,17,-1,-1,-1,19,21,23,25,27,29,31,-1,-1,-1,33,35,-1,-1,-1,-1,37,-1,-1,-1,-1,-1,39,41,-1,-1,43,-1,45,47,49,-1,-1,-1,-1,-1,-1,-1,-1],"loss_changes":[8.71358E3,1.8586133E2,8.089321E2,1.488291E2,3.279244E1,4.9497437E1,3.079795E2,7.8970215E1,2.2797736E2,0E0,0E0,0E0,5.905762E-1,1.7186372E2,1.9797119E2,9.263623E0,3.849951E1,1.4581451E0,6.675064E0,0E0,0E0,0E0,8.743886E1,5.1464355E1,0E0,0E0,0E0,0E0,1.8831323E2,0E0,0E0,0E0,0E0,0E0,2.224263E1,2.9983887E1,0E0,0E0,8.0277405E1,0E0,1.9376526E0,1.7601074E1,5.7546707E1,0E0,0E0,0E0,0E0,0E0,0E0,0E0,0E0],"parents":[2147483647,0,0,1,1,2,2,3,3,4,4,5,5,6,6,7,7,8,8,12,12,13,13,14,14,15,15,16,16,17,17,18,18,22,22,23,23,28,28,34,34,35,35,38,38,40,40,41,41,42,42],"right_children":[2,4,6,8,10,12,14,16,18,-1,-1,-1,20,22,24,26,28,30,32,-1,-1,-1,34,36,-1,-1,-1,-1,38,-1,-1,-1,-1,-1,40,42,-1,-1,44,-1,46,48,50,-1,-1,-1,-1,-1,-1,-1,-1],"split_conditions":[4.479772E-3,1.2211979E6,5.25E3,6.5528953E-1,2.032209E1,3E0,4.223423E0,4.3737984E0,6.686205E-1,-4.7419354E-2,5.941368E-2,3.588785E-2,1.7855955E4,2.2340426E-1,1.2E1,1.1721097E1,7.009922E0,8.891193E-1,1.5511333E5,-5.985565E-2,-4.0833335E-2,-5.9717424E-2,6.8875836E4,3E0,-5.9338234E-2,-7.5E-3,5.333333E-2,-5.9991524E-2,8E0,5.961039E-2,3.5853658E-2,-5.8983047E-2,-1.2537314E-2,-5.8922153E-2,2.326222E0,2E0,-5.04878E-2,5.93617E-2,4.3058693E1,-1.1176471E-2,1.0988387E0,3.07E4,5.1062603E0,-5.97099E-2,-1.4350961E-2,5.874598E-2,3.588785E-2,4.943787E-2,5.8600634E-2,-5.823529E-2,4.5117985E-2],"split_indices":[16,15,0,26,17,29,3,12,26,0,0,0,15,26,3,1,3,29,21,0,0,0,21,28,0,0,0,0,3,0,0,0,0,0,3,28,0,0,27,0,19,0,3,0,0,0,0,0,0,0,0],"split_type":[0,0,0,0,0,0,0,0,0,0,0,0,0,0,0,0,0,0,0,0,0,0,0,0,0,0,0,0,0,0,0,0,0,0,0,0,0,0,0,0,0,0,0,0,0,0,0,0,0,0,0],"sum_hessian":[3.1215E3,1.451E3,1.6705E3,1.43275E3,1.825E1,7.1E1,1.5995E3,1.36425E3,6.85E1,3E0,1.525E1,5.25E0,6.575E1,8.125E1,1.51825E3,9.25E0,1.355E3,2.7E1,4.15E1,6.225E1,3.5E0,3.175E1,4.95E1,1.50475E3,1.35E1,3.5E0,5.75E0,1.06175E3,2.9325E2,2.3E1,4E0,3.825E1,3.25E0,8.25E0,4.125E1,1.50075E3,4E0,1.4E1,2.7925E2,5E0,3.625E1,1.4005E3,1.0025E2,2.3775E2,4.15E1,3.1E1,5.25E0,2.365E2,1.164E3,5E0,9.525E1],"tree_param":{"num_deleted":"0","num_feature":"30","num_nodes":"51","size_leaf_vector":"1"}},{"base_weights":[-2.0979312E-3,-1.7243655E0,1.5269995E0,3.2535374E-1,-1.8969208E0,-7.3849595E-1,1.6947638E0,-5.8000606E-2,1.091785E0,-1.9161056E0,-1.0225246E0,-5.8239125E-2,8.3532494E-1,1.7372491E0,-5.777095E-2,1.5304897E0,-5.7472426E-2,-5.8192983E-2,-1.822261E0,1.5831021E0,-5.7882633E-2,-5.7364084E-2,1.5190281E0,7.4966633E-1,1.790209E0,1.7820108E0,-5.699901E-2,5.718026E-2,-5.8131278E-2,5.8354594E-2,3.1073894E-2,1.6957691E0,-1.2417004E-2,1.3411478E0,-1.7006838E0,1.7993E0,-5.5916633E-2,1.8461206E0,2.2752564E-2,1.2188343E0,5.809306E-2,-5.8439273E-2,1.5707142E0,-2.139505E-2,-5.871141E-2,1.8205721E0,4.073559E-1,5.740146E-2,4.7965184E-2,-8.685962E-3,5.4396983E-2,-2.6922446E-2,5.375837E-2,5.569849E-2,4.108084E-2,-4.5690876E-2,5.533678E-2],"categories":[],"categories_nodes":[],"categories_segments":[],"categories_sizes":[],"default_left":[0,0,0,0,0,0,0,0,0,0,0,0,0,0,0,0,0,0,0,0,0,0,0,0,0,0,0,0,0,0,0,0,0,0,0,0,0,0,0,0,0,0,0,0,0,0,0,0,0,0,0,0,0,0,0,0,0],"id":1,"left_children":[1,3,5,7,9,11,13,-1,15,17,19,-1,21,23,-1,25,-1,-1,27,29,-1,-1,31,33,35,37,-1,-1,-1,-1,-1,39,-1,41,43,45,-1,47,-1,49,-1,-1,51,-1,-1,53,55,-1,-1,-1,-1,-1,-1,-1,-1,-1,-1],"loss_changes":[8.20109E3,5.1822656E2,6.2715845E2,1.9706567E2,2.2172363E1,2.1561708E2,2.3655957E2,0E0,1.1245418E2,2.2050781E0,6.964821E1,0E0,9.28825E1,7.901416E1,0E0,6.443219E1,0E0,0E0,1.1599835E2,1.0062275E0,0E0,0E0,1.3717056E1,1.1256821E2,4.818799E1,4.147156E0,0E0,0E0,0E0,0E0,0E0,3.617714E0,0E0,4.7496628E1,3.4131432E0,4.225879E1,0E0,4.248352E-1,0E0,1.1493729E1,0E0,0E0,3.222084E1,0E0,0E0,2.244336E1,6.0885258E1,0E0,0E0,0E0,0E0,0E0,0E0,0E0,0E0,0E0,0E0],"parents":[2147483647,0,0,1,1,2,2,3,3,4,4,5,5,6,6,8,8,9,9,10,10,12,12,13,13,15,15,18,18,19,19,22,22,23,23,24,24,25,25,31,31,33,33,34,34,35,35,37,37,39,39,42,42,45,45,46,46],"right_children":[2,4,6,8,10,12,14,-1,16,18,20,-1,22,24,-1,26,-1,-1,28,30,-1,-1,32,34,36,38,-1,-1,-1,-1,-1,40,-1,42,44,46,-1,48,-1,50,-1,-1,52,-1,-1,54,56,-1,-1,-1,-1,-1,-1,-1,-1,-1,-1],"split_conditions":[4.479772E-3,3.563706E0,4.223423E0,4.2228285E4,2.3874802E5,3.682397E-1,1.2E1,-5.8000606E-2,7.2154427E0,7.009922E0,5E0,-5.8239125E-2,2.2033899E-1,5.1062603E0,-5.777095E-2,1.254049E3,-5.7472426E-2,-5.8192983E-2,8E0,5.510446E-1,-5.7882633E-2,-5.7364084E-2,1.3710468E0,1.1E1,5E0,1.7518063E0,-5.699901E-2,5.718026E-2,-5.8131278E-2,5.8354594E-2,3.1073894E-2,6.5149293E4,-1.2417004E-2,1.25E-1,1.54432745E1,4.4E1,-5.5916633E-2,7.332671E4,2.2752564E-2,6.832083E-1,5.809306E-2,-5.8439273E-2,-3.4076124E-1,-2.139505E-2,-5.871141E-2,2E0,5.9153163E-1,5.740146E-2,4.7965184E-2,-8.685962E-3,5.4396983E-2,-2.6922446E-2,5.375837E-2,5.569849E-2,4.108084E-2,-4.5690876E-2,5.533678E-2],"split_indices":[16,14,3,6,6,10,3,0,13,3,14,0,26,3,0,8,0,0,3,29,0,0,28,13,29,28,0,0,0,0,0,6,0,26,13,13,0,6,0,24,0,0,10,0,0,28,10,0,0,0,0,0,0,0,0,0,0],"split_type":[0,0,0,0,0,0,0,0,0,0,0,0,0,0,0,0,0,0,0,0,0,0,0,0,0,0,0,0,0,0,0,0,0,0,0,0,0,0,0,0,0,0,0,0,0,0,0,0,0,0,0,0,0,0,0,0,0],"sum_hessian":[3.113916E3,1.4644807E3,1.6494352E3,1.1366222E2,1.3508185E3,1.13657936E2,1.5357773E3,2.8725157E1,8.4937065E1,1.3215884E3,2.9230143E1,6.444522E1,4.921271E1,1.518043E3,1.7734278E1,7.419648E1,1.074058E1,1.0530552E3,2.6853317E2,7.499194E0,2.1730947E1,9.741312E0,3.94714E1,7.743621E1,1.4406068E3,6.919994E1,4.996538E0,7.9929566E0,2.605402E2,4.249781E0,3.249413E0,3.622326E1,3.24814E0,6.2448147E1,1.4988063E1,1.4371096E3,3.497226E0,6.49537E1,4.246245E0,1.2491152E1,2.3732107E1,3.9969862E0,5.845116E1,3.2473757E0,1.1740687E1,1.4153767E3,2.1732874E1,5.0216454E1,1.4737244E1,3.4978755E0,8.993277E0,4.7459702E0,5.3705193E1,1.3101819E3,1.0519488E2,9.242809E0,1.2490065E1],"tree_param":{"num_deleted":"0","num_feature":"30","num_nodes":"57","size_leaf_vector":"1"}},{"base_weights":[-2.8608267E-3,-1.6794589E0,1.4828532E0,2.3996922E-1,-1.8453423E0,-1.6401335E0,1.6252294E0,-5.6420866E-2,9.287543E-1,-1.8677305E0,-8.7180674E-1,3.4937244E-2,-1.8752328E0,-1.4811309E-1,1.7256975E0,1.3790004E0,-1.7129612E0,-5.6651596E-2,-1.7855967E0,1.599739E0,-5.629733E-2,-4.025481E-2,-5.7100553E-2,-5.6498833E-2,9.037242E-1,1.7561252E0,-5.5994317E-2,-5.1212523E-2,1.6380012E0,-3.63022E-2,-5.580453E-2,5.547456E-2,-5.6526545E-2,3.0166801E-2,5.726562E-2,-5.5838723E-2,1.3851253E0,1.7984368E0,1.2247483E0,1.0157431E0,1.7641958E0,-1.2534353E-2,1.563971E0,1.5399553E0,1.8502392E0,1.402464E0,-5.8261912E-2,4.628156E-2,-7.2657615E-3,5.480263E-2,2.0032525E-2,2.5991192E-2,5.6679122E-2,4.9360204E-2,-5.7209946E-2,4.7523286E-2,5.5897444E-2,-4.14296E-2,4.613791E-2],"categories":[],"categories_nodes":[],"categories_segments":[],"categories_sizes":[],"default_left":[0,0,0,0,0,0,0,0,0,0,0,0,0,0,0,0,0,0,0,0,0,0,0,0,0,0,0,0,0,0,0,0,0,0,0,0,0,0,0,0,0,0,0,0,0,0,0,0,0,0,0,0,0,0,0,0,0,0,0],"id":2,"left_children":[1,3,5,7,9,11,13,-1,15,17,19,-1,21,23,25,27,29,-1,31,33,-1,-1,-1,-1,35,37,-1,-1,39,-1,-1,-1,-1,-1,-1,-1,41,43,45,47,49,-1,51,53,55,57,-1,-1,-1,-1,-1,-1,-1,-1,-1,-1,-1,-1,-1],"loss_changes":[7.7468804E3,4.6544434E2,7.3340186E2,1.6991978E2,2.8878418E1,4.7706924E1,2.8115234E2,0E0,1.04717834E2,1.5253906E0,7.612749E1,0E0,4.1630554E-1,1.5466315E2,1.6345312E2,6.0350113E1,4.1591644E-1,0E0,9.605481E1,1.1416245E0,0E0,0E0,0E0,0E0,7.0357445E1,3.2754395E1,0E0,0E0,4.9943542E0,0E0,0E0,0E0,0E0,0E0,0E0,0E0,1.4681374E1,1.772754E1,6.1927795E1,8.171752E0,3.5691223E0,0E0,8.862572E0,8.3738464E1,3.3098145E0,3.9408844E1,0E0,0E0,0E0,0E0,0E0,0E0,0E0,0E0,0E0,0E0,0E0,0E0,0E0],"parents":[2147483647,0,0,1,1,2,2,3,3,4,4,5,5,6,6,8,8,9,9,10,10,12,12,13,13,14,14,15,15,16,16,18,18,19,19,24,24,25,25,28,28,36,36,37,37,38,38,39,39,40,40,42,42,43,43,44,44,45,45],"right_children":[2,4,6,8,10,12,14,-1,16,18,20,-1,22,24,26,28,30,-1,32,34,-1,-1,-1,-1,36,38,-1,-1,40,-1,-1,-1,-1,-1,-1,-1,42,44,46,48,50,-1,52,54,56,58,-1,-1,-1,-1,-1,-1,-1,-1,-1,-1,-1,-1,-1],"split_conditions":[4.479772E-3,3.563706E0,5.25E3,4.2228285E4,2.3874802E5,3E0,4.223423E0,-5.6420866E-2,7.2154427E0,7.009922E0,5E0,3.4937244E-2,3.0585876E0,3.682397E-1,1.2E1,5.3773117E0,-6.2273693E-1,-5.6651596E-2,7.96458E0,2.1455652E-1,-5.629733E-2,-4.025481E-2,-5.7100553E-2,-5.6498833E-2,7.9392E4,2E0,-5.5994317E-2,-5.1212523E-2,1.227978E1,-3.63022E-2,-5.580453E-2,5.547456E-2,-5.6526545E-2,3.0166801E-2,5.726562E-2,-5.5838723E-2,-2.8412077E-1,3.07E4,3.125352E-1,-1.0299003E-1,1.1587E5,-1.2534353E-2,1.10314336E5,9.8687685E-1,5.1062603E0,3.0264444E0,-5.8261912E-2,4.628156E-2,-7.2657615E-3,5.480263E-2,2.0032525E-2,2.5991192E-2,5.6679122E-2,4.9360204E-2,-5.7209946E-2,4.7523286E-2,5.5897444E-2,-4.14296E-2,4.613791E-2],"split_indices":[16,14,0,6,6,29,3,0,13,3,14,0,9,10,3,27,10,0,3,5,0,0,0,0,21,28,0,0,9,0,0,0,0,0,0,0,19,0,24,19,21,0,7,5,3,13,0,0,0,0,0,0,0,0,0,0,0,0,0],"split_type":[0,0,0,0,0,0,0,0,0,0,0,0,0,0,0,0,0,0,0,0,0,0,0,0,0,0,0,0,0,0,0,0,0,0,0,0,0,0,0,0,0,0,0,0,0,0,0,0,0,0,0,0,0,0,0,0,0,0,0],"sum_hessian":[3.1098086E3,1.4610724E3,1.6487361E3,1.1617462E2,1.3448977E3,7.1811615E1,1.5769246E3,2.8404194E1,8.777043E1,1.3144745E3,3.0423283E1,5.490452E0,6.632116E1,8.449404E1,1.4924304E3,7.506263E1,1.2707797E1,1.0475945E3,2.6688004E2,8.7474575E0,2.1675825E1,3.7431543E0,6.2578007E1,3.1894596E1,5.2599445E1,1.4799733E3,1.245724E1,5.738709E0,6.932392E1,3.2398958E0,9.467901E0,6.9762855E0,2.5990375E2,3.2497053E0,5.497752E0,7.726503E0,4.4872944E1,1.3704247E3,1.09548546E2,1.1974703E1,5.734922E1,3.9870358E0,4.0885906E1,2.296296E2,1.140795E3,1.03810196E2,5.738349E0,8.479371E0,3.4953315E0,5.410444E1,3.2447827E0,1.3217616E1,2.7668291E1,2.228962E2,6.733408E0,5.4096355E1,1.0866987E3,4.74088E0,9.906932E1],"tree_param":{"num_deleted":"0","num_feature":"30","num_nodes":"59","size_leaf_vector":"1"}},{"base_weights":[1.0012425E-2,1.3642263E0,-1.6915102E0,-1.267507E0,1.5224274E0,-5.5184726E-2,-1.385429E0,-5.561071E-2,6.336852E-2,2.730913E-1,1.6754289E0,-5.5142052E-2,-8.245732E-1,-1.3501613E0,1.1885482E0,-1.6080807E0,1.1852871E0,1.7132934E0,-5.49396E-2,5.5700548E-2,-1.5278275E0,-5.498922E-2,3.41359E-3,-1.1495634E-2,1.5739734E0,-1.7602334E0,2.1778459E-2,-1.1509166E0,1.5653925E0,1.7523502E0,1.2085892E0,-1.8223838E0,-9.7033733E-1,2.0061202E-2,5.5260036E-2,-5.5304896E-2,-1.4991543E0,-5.6216374E-2,5.364423E-2,1.6790028E0,-4.7961622E-2,1.5415113E0,1.8001702E0,1.6330947E0,-2.9819417E-1,-5.520962E-2,-3.5903793E-2,2.6769567E-1,-5.4953687E-2,-5.4707285E-2,-1.9186907E-2,7.91435E-3,5.1985648E-2,4.9134705E-2,-5.9383307E-2,3.351279E-2,5.4188818E-2,-2.3428543E-2,5.208641E-2,-5.486201E-2,4.4381298E-2,-5.420364E-2,4.3766998E-2],"categories":[],"categories_nodes":[],"categories_segments":[],"categories_sizes":[],"default_left":[0,0,0,0,0,0,0,0,0,0,0,0,0,0,0,0,0,0,0,0,0,0,0,0,0,0,0,0,0,0,0,0,0,0,0,0,0,0,0,0,0,0,0,0,0,0,0,0,0,0,0,0,0,0,0,0,0,0,0,0,0,0,0],"id":3,"left_children":[1,3,5,7,9,-1,11,-1,13,15,17,-1,19,21,23,25,27,29,-1,-1,31,-1,-1,-1,33,35,-1,37,39,41,43,45,47,-1,-1,-1,49,-1,-1,51,-1,53,55,57,59,-1,-1,61,-1,-1,-1,-1,-1,-1,-1,-1,-1,-1,-1,-1,-1,-1,-1],"loss_changes":[7.1314204E3,7.17739E2,6.1546143E1,7.644302E1,3.10521E2,0E0,1.1321796E2,0E0,4.7749393E1,3.048529E2,1.9260669E2,0E0,3.7773688E2,9.574499E0,1.0331211E1,2.082602E1,1.0649303E2,2.7737305E1,0E0,0E0,2.5601166E1,0E0,0E0,0E0,2.9082756E0,5.743866E-1,0E0,3.5971527E1,3.7305023E1,1.2793213E1,6.633775E1,6.385193E-1,5.9063587E1,0E0,0E0,0E0,3.5432396E0,0E0,0E0,7.338867E0,0E0,8.401227E1,4.0354004E0,2.0335068E1,6.2244663E1,0E0,0E0,5.628414E1,0E0,0E0,0E0,0E0,0E0,0E0,0E0,0E0,0E0,0E0,0E0,0E0,0E0,0E0,0E0],"parents":[2147483647,0,0,1,1,2,2,3,3,4,4,6,6,8,8,9,9,10,10,12,12,13,13,14,14,15,15,16,16,17,17,20,20,24,24,25,25,27,27,28,28,29,29,30,30,31,31,32,32,36,36,39,39,41,41,42,42,43,43,44,44,47,47],"right_children":[2,4,6,8,10,-1,12,-1,14,16,18,-1,20,22,24,26,28,30,-1,-1,32,-1,-1,-1,34,36,-1,38,40,42,44,46,48,-1,-1,-1,50,-1,-1,52,-1,54,56,58,60,-1,-1,62,-1,-1,-1,-1,-1,-1,-1,-1,-1,-1,-1,-1,-1,-1,-1],"split_conditions":[4E0,8.612685E0,6.0161543E0,7.009922E0,5.1062603E0,-5.5184726E-2,6.0022664E-3,-5.561071E-2,5.1005303E3,2.2033899E-1,1.2E1,-5.5142052E-2,9.825488E-1,8.4404E0,8.5126875E4,4.106959E0,0E0,2E0,-5.49396E-2,5.5700548E-2,4.9E1,-5.498922E-2,3.41359E-3,-1.1495634E-2,1.6913218E1,1.3333334E-1,2.1778459E-2,1.3555579E1,1.9767468E0,1.0315836E1,7.626974E4,2.811761E5,9.210526E-2,2.0061202E-2,5.5260036E-2,-5.5304896E-2,3.1271836E-1,-5.6216374E-2,5.364423E-2,3.051123E0,-4.7961622E-2,9.8687685E-1,7.29927E-3,1.14E2,1.1608245E1,-5.520962E-2,-3.5903793E-2,6.3816023E4,-5.4953687E-2,-5.4707285E-2,-1.9186907E-2,7.91435E-3,5.1985648E-2,4.9134705E-2,-5.9383307E-2,3.351279E-2,5.4188818E-2,-2.3428543E-2,5.208641E-2,-5.486201E-2,4.4381298E-2,-5.420364E-2,4.3766998E-2],"split_indices":[14,1,3,3,3,0,5,0,15,26,3,0,5,1,21,10,10,28,0,0,17,0,0,0,27,26,0,1,28,1,22,7,26,0,0,0,10,0,0,27,0,5,26,8,1,0,0,22,0,0,0,0,0,0,0,0,0,0,0,0,0,0,0],"split_type":[0,0,0,0,0,0,0,0,0,0,0,0,0,0,0,0,0,0,0,0,0,0,0,0,0,0,0,0,0,0,0,0,0,0,0,0,0,0,0,0,0,0,0,0,0,0,0,0,0,0,0,0,0,0,0,0,0,0,0,0,0,0,0],"sum_hessian":[3.0947456E3,1.7232878E3,1.3714579E3,9.7642105E1,1.6256458E3,9.239359E2,4.4752194E2,6.7810745E1,2.9831358E1,1.7746704E2,1.4481787E3,2.4742845E2,2.0009349E2,1.3173284E1,1.6658075E1,5.7892525E1,1.19574524E2,1.4327876E3,1.5391049E1,4.1513E1,1.5858049E2,9.938611E0,3.2346718E0,3.2295074E0,1.3428568E1,5.441284E1,3.479682E0,1.666741E1,1.0290711E2,1.329461E3,1.0332658E2,1.0349268E2,5.5087803E1,3.2326944E0,1.0195873E1,4.0505665E1,1.3907178E1,1.3433294E1,3.2341156E0,9.941603E1,3.4910808E0,2.4678716E2,1.0826738E3,8.0660194E1,2.2666384E1,1.00263885E2,3.2288013E0,2.2584055E1,3.250375E1,9.930706E0,3.9764714E0,3.7340844E0,9.5681946E1,2.4029597E2,6.491181E0,9.927931E0,1.072746E3,3.2376962E0,7.74225E1,1.2208173E1,1.045821E1,8.188371E0,1.4395683E1],"tree_param":{"num_deleted":"0","num_feature":"30","num_nodes":"63","size_leaf_vector":"1"}},{"base_weights":[1.5094167E-2,-1.5907788E0,1.4178022E0,3.0965704E-1,-1.7473648E0,-1.6008859E0,1.5596611E0,-5.396624E-2,9.6378314E-1,-1.7674326E0,-7.6795524E-1,-1.7053808E0,9.605667E-3,-1.0412921E-1,1.6515516E0,1.3647048E0,-1.6125473E0,-5.3775664E-2,-1.6690286E0,1.4980487E0,-5.3454608E-2,-1.0008907E0,-5.4256454E-2,-5.3740814E-2,8.907577E-1,1.676412E0,-5.3148817E-2,1.6156958E0,-4.944262E-2,-3.3984233E-2,-5.3353198E-2,5.316702E-2,-5.3578664E-2,2.8553506E-2,5.4265454E-2,-5.325308E-2,1.2102096E-2,-5.036752E-2,1.4514478E0,1.3722843E0,1.7399645E0,1.2612923E0,1.7357014E0,1.6282071E0,-7.9527893E-4,-5.048143E-1,1.6761796E0,1.2789987E0,1.752272E0,-3.0306915E-2,5.3835973E-2,5.3653564E-2,3.105213E-2,5.3354688E-2,9.250572E-3,1.1508402E-2,-5.640876E-2,5.1803447E-2,-1.795177E-2,6.101398E-3,5.2508637E-2,4.6104074E-2,5.2925803E-2],"categories":[],"categories_nodes":[],"categories_segments":[],"categories_sizes":[],"default_left":[0,0,0,0,0,0,0,0,0,0,0,0,0,0,0,0,0,0,0,0,0,0,0,0,0,0,0,0,0,0,0,0,0,0,0,0,0,0,0,0,0,0,0,0,0,0,0,0,0,0,0,0,0,0,0,0,0,0,0,0,0,0,0],"id":4,"left_children":[1,3,5,7,9,11,13,-1,15,17,19,21,-1,23,25,27,29,-1,31,33,-1,35,-1,-1,37,39,-1,41,-1,-1,-1,-1,-1,-1,-1,-1,-1,-1,43,45,47,49,51,53,-1,55,57,59,61,-1,-1,-1,-1,-1,-1,-1,-1,-1,-1,-1,-1,-1,-1],"loss_changes":[6.914708E3,4.2608862E2,7.019094E2,1.5040135E2,2.5599854E1,1.4960159E1,2.394502E2,0E0,8.621409E1,2.5529785E0,6.1926773E1,4.6134796E0,0E0,1.3781317E2,1.26511475E2,5.482303E1,4.0088844E-1,0E0,1.0713855E2,9.637127E-1,0E0,1.0285032E1,0E0,0E0,7.45402E1,2.7912598E1,0E0,2.3174744E0,0E0,0E0,0E0,0E0,0E0,0E0,0E0,0E0,0E0,0E0,1.124868E1,1.4582419E2,6.380127E0,2.1390244E1,1.3560486E0,7.265587E0,0E0,4.3726963E1,2.5512268E1,1.6112846E1,2.4431152E0,0E0,0E0,0E0,0E0,0E0,0E0,0E0,0E0,0E0,0E0,0E0,0E0,0E0,0E0],"parents":[2147483647,0,0,1,1,2,2,3,3,4,4,5,5,6,6,8,8,9,9,10,10,11,11,13,13,14,14,15,15,16,16,18,18,19,19,21,21,24,24,25,25,27,27,38,38,39,39,40,40,41,41,42,42,43,43,45,45,46,46,47,47,48,48],"right_children":[2,4,6,8,10,12,14,-1,16,18,20,22,-1,24,26,28,30,-1,32,34,-1,36,-1,-1,38,40,-1,42,-1,-1,-1,-1,-1,-1,-1,-1,-1,-1,44,46,48,50,52,54,-1,56,58,60,62,-1,-1,-1,-1,-1,-1,-1,-1,-1,-1,-1,-1,-1,-1],"split_conditions":[4.479772E-3,3.563706E0,5.25E3,4.2228285E4,2.3874802E5,2.0121193E3,4.223423E0,-5.396624E-2,7.2154427E0,7.009922E0,5E0,-4.8805737E-1,9.605667E-3,3.682397E-1,1.2E1,1.254049E3,1.0266495E4,-5.3775664E-2,8E0,2.2578444E-1,-5.3454608E-2,-5.9183675E-1,-5.4256454E-2,-5.3740814E-2,2.2033899E-1,6.0161543E0,-5.3148817E-2,5.1062603E0,-4.944262E-2,-3.3984233E-2,-5.3353198E-2,5.316702E-2,-5.3578664E-2,2.8553506E-2,5.4265454E-2,-5.325308E-2,1.2102096E-2,-5.036752E-2,8.177378E-1,7.475556E4,2.0476124E0,1.4060397E0,9.01128E-1,6.666667E-1,-7.9527893E-4,1.1E1,1.36E2,5.6599754E-1,1.14E2,-3.0306915E-2,5.3835973E-2,5.3653564E-2,3.105213E-2,5.3354688E-2,9.250572E-3,1.1508402E-2,-5.640876E-2,5.1803447E-2,-1.795177E-2,6.101398E-3,5.2508637E-2,4.6104074E-2,5.2925803E-2],"split_indices":[16,14,0,6,6,8,3,0,13,3,14,19,0,10,3,8,15,0,3,5,0,19,0,0,26,3,0,3,0,0,0,0,0,0,0,0,0,0,18,15,27,19,10,26,0,13,9,10,8,0,0,0,0,0,0,0,0,0,0,0,0,0,0],"split_type":[0,0,0,0,0,0,0,0,0,0,0,0,0,0,0,0,0,0,0,0,0,0,0,0,0,0,0,0,0,0,0,0,0,0,0,0,0,0,0,0,0,0,0,0,0,0,0,0,0,0,0,0,0,0,0,0,0,0,0,0,0,0,0],"sum_hessian":[3.0695032E3,1.4310726E3,1.6384305E3,1.0888094E2,1.3221917E3,7.346198E1,1.5649685E3,2.5702564E1,8.317838E1,1.2954653E3,2.6726358E1,6.973225E1,3.7297342E0,8.185114E1,1.4831174E3,7.205173E1,1.1126656E1,1.0300911E3,2.6537427E2,8.216335E0,1.8510023E1,9.167894E0,6.0564354E1,3.03689E1,5.148224E1,1.4725038E3,1.0613652E1,6.658426E1,5.467467E0,3.2149901E0,7.911665E0,8.645939E0,2.5672833E2,3.243504E0,4.972831E0,5.9386287E0,3.229266E0,9.153488E0,4.232875E1,2.5518024E2,1.2173235E3,1.734497E1,4.923929E1,3.7858486E1,4.470266E0,3.5501244E1,2.19679E2,3.2140934E1,1.1851826E3,3.244957E0,1.4100015E1,4.5514492E1,3.7247965E0,3.388924E1,3.9692445E0,2.1569078E1,1.3932164E1,2.1496477E2,4.7142353E0,9.900486E0,2.2240446E1,6.3256153E1,1.1219264E3],"tree_param":{"num_deleted":"0","num_feature":"30","num_nodes":"63","size_leaf_vector":"1"}},{"base_weights":[-1.2350543E-2,-1.5666416E0,1.3842415E0,-1.6001267E0,1.2451055E0,-1.5124539E0,1.5140646E0,6.102521E-1,-1.623704E0,-2.086289E-2,5.253886E-2,-1.632717E0,1.6814107E-2,-1.7465276E-1,1.6006334E0,-4.627938E-2,4.8005752E-2,-5.260773E-2,-1.3528605E0,-8.9741284E-1,-5.302747E-2,-1.1032493E0,1.3623071E0,1.6243194E0,-5.18754E-2,-5.258088E-2,-8.8980305E-1,-5.2519064E-2,2.8649662E-2,8.1894916E-1,-1.7197638E0,1.6181499E0,-1.7836556E-2,1.6334018E0,-5.526284E-2,6.101475E-1,-1.5531329E0,1.5242989E0,-2.7889073E-2,-3.4256905E-2,-5.3100243E-2,5.1477287E-2,2.6707016E-2,1.0686426E0,1.6638734E0,3.799731E-2,-5.214929E-2,-3.4686092E-2,-5.259568E-2,3.364799E-2,5.2170135E-2,-5.1545363E-2,4.31824E-2,5.0720472E-2,3.7697952E-2],"categories":[],"categories_nodes":[],"categories_segments":[],"categories_sizes":[],"default_left":[0,0,0,0,0,0,0,0,0,0,0,0,0,0,0,0,0,0,0,0,0,0,0,0,0,0,0,0,0,0,0,0,0,0,0,0,0,0,0,0,0,0,0,0,0,0,0,0,0,0,0,0,0,0,0],"id":5,"left_children":[1,3,5,7,9,11,13,15,17,-1,-1,19,-1,21,23,-1,-1,-1,25,27,-1,29,31,33,-1,-1,35,-1,-1,37,39,41,-1,43,-1,45,47,49,-1,-1,-1,-1,-1,51,53,-1,-1,-1,-1,-1,-1,-1,-1,-1,-1],"loss_changes":[6.650521E3,1.3675903E2,6.0707544E2,7.48833E1,1.7011034E1,1.7459305E1,2.2597119E2,3.2546005E1,4.933618E1,0E0,0E0,6.0714874E0,0E0,1.0766798E2,1.1615576E2,0E0,0E0,0E0,8.480249E1,1.6797129E1,0E0,5.6009686E1,1.4408894E1,4.6213867E1,0E0,0E0,2.1271858E2,0E0,0E0,1.4333843E1,5.4351807E-1,1.3780365E0,0E0,2.4593262E1,0E0,1.0118425E2,1.1273193E1,2.3165321E-1,0E0,0E0,0E0,0E0,0E0,7.766138E1,1.456543E1,0E0,0E0,0E0,0E0,0E0,0E0,0E0,0E0,0E0,0E0],"parents":[2147483647,0,0,1,1,2,2,3,3,4,4,5,5,6,6,7,7,8,8,11,11,13,13,14,14,18,18,19,19,21,21,22,22,23,23,26,26,29,29,30,30,31,31,33,33,35,35,36,36,37,37,43,43,44,44],"right_children":[2,4,6,8,10,12,14,16,18,-1,-1,20,-1,22,24,-1,-1,-1,26,28,-1,30,32,34,-1,-1,36,-1,-1,38,40,42,-1,44,-1,46,48,50,-1,-1,-1,-1,-1,52,54,-1,-1,-1,-1,-1,-1,-1,-1,-1,-1],"split_conditions":[4.479772E-3,1.2211979E6,5.25E3,4.3737984E0,2.0713778E1,2.0121193E3,4.223423E0,1.4178562E0,6.0161543E0,-2.086289E-2,5.253886E-2,-4.7723654E-1,1.6814107E-2,1.6740372E5,1.2E1,-4.627938E-2,4.8005752E-2,-5.260773E-2,6.0632625E0,-5.6809324E-1,-5.302747E-2,1.3997243E4,2.7357433E1,3E0,-5.18754E-2,-5.258088E-2,6.1E1,-5.2519064E-2,2.8649662E-2,2.5941253E-1,2.1157295E4,5.886842E3,-1.7836556E-2,1.14E2,-5.526284E-2,2.8666666E4,-1.1607328E-1,7.703373E-1,-2.7889073E-2,-3.4256905E-2,-5.3100243E-2,5.1477287E-2,2.6707016E-2,6.0161543E0,9.893333E-1,3.799731E-2,-5.214929E-2,-3.4686092E-2,-5.259568E-2,3.364799E-2,5.2170135E-2,-5.1545363E-2,4.31824E-2,5.0720472E-2,3.7697952E-2],"split_indices":[16,15,0,12,17,8,3,13,3,0,0,19,0,15,3,0,0,0,13,19,0,7,17,28,0,0,12,0,0,28,7,8,0,8,0,15,19,18,0,0,0,0,0,3,24,0,0,0,0,0,0,0,0,0,0],"split_type":[0,0,0,0,0,0,0,0,0,0,0,0,0,0,0,0,0,0,0,0,0,0,0,0,0,0,0,0,0,0,0,0,0,0,0,0,0,0,0,0,0,0,0,0,0,0,0,0,0,0,0,0,0,0,0],"sum_hessian":[3.0635447E3,1.4499407E3,1.6136041E3,1.4329542E3,1.6986437E1,6.913713E1,1.544467E3,1.5052403E1,1.4179017E3,3.465628E0,1.3520809E1,6.5411674E1,3.7254577E0,7.525203E1,1.469215E3,4.6918435E0,1.036056E1,9.577036E2,4.6019815E2,1.0371539E1,5.504014E1,4.696819E1,2.828384E1,1.4589185E3,1.0296526E1,2.4669247E2,2.1350568E2,7.14158E0,3.229959E0,1.135864E1,3.560955E1,2.5074032E1,3.2098079E0,1.4551875E3,3.7309701E0,6.54238E1,1.4808188E2,8.143646E0,3.214994E0,3.1975195E0,3.241203E1,2.1864506E1,3.209527E0,7.484828E1,1.3803392E3,5.120099E1,1.4222807E1,5.00185E1,9.806338E1,3.210402E0,4.9332438E0,8.714491E0,6.61338E1,1.2945637E3,8.57755E1],"tree_param":{"num_deleted":"0","num_feature":"30","num_nodes":"55","size_leaf_vector":"1"}},{"base_weights":[5.4904707E-3,-1.3722975E0,6.4929473E-1,-1.630568E0,4.0910137E-1,-1.0451982E0,1.0795454E0,-5.135187E-2,-1.2915782E0,-1.3927016E0,1.2650092E0,-2.1004389E-1,-1.7074864E0,1.2593582E0,-5.1509537E-2,-1.4366609E0,5.2072245E-1,-1.5683842E0,-0E0,1.4445574E0,-4.5869563E-2,1.0660242E0,-1.3481586E0,-1.8268922E-2,-5.1666178E-2,1.3854837E0,-0E0,-5.057355E-1,-1.6969277E0,-5.0034486E-2,4.80052E-2,-1.6660448E0,-1.8906793E-2,1.5665787E0,6.524177E-1,-4.8355E-2,1.3251193E0,-1.5920582E0,5.1398467E-2,4.106563E-1,1.458755E0,1.1218646E0,-4.597978E-1,5.213205E-2,-1.4303974E0,-1.4311892E0,-5.1741585E-2,-5.161859E-2,-3.344119E-2,1.6365296E0,6.8665138E-3,1.473506E0,-3.0567197E-2,-4.3043658E-2,1.5009583E0,-5.1664744E-2,-1.2056718E0,-4.550969E-1,1.4336079E0,1.1694833E0,1.6071079E0,1.4010805E0,-4.9376957E-2,-1.5441726E0,7.8070706E-1,-3.4567437E-3,-5.183993E-2,-1.927457E-2,-5.088396E-2,3.5539187E-2,5.0678056E-2,3.3383418E-2,5.115577E-2,4.941771E-2,-1.6329372E-2,-4.8687826E-3,-5.1082682E-2,-5.035518E-2,6.5135225E-3,-5.326178E-2,5.1719006E-2,-3.0489724E-2,4.1032027E-2,-1.3018776E-2,4.888627E-2,-4.435336E-3,4.7642782E-2,-5.1472235E-2,9.637251E-3,-4.22468E-2,3.17576E-2],"categories":[],"categories_nodes":[],"categories_segments":[],"categories_sizes":[],"default_left":[0,0,0,0,0,0,0,0,0,0,0,0,0,0,0,0,0,0,0,0,0,0,0,0,0,0,0,0,0,0,0,0,0,0,0,0,0,0,0,0,0,0,0,0,0,0,0,0,0,0,0,0,0,0,0,0,0,0,0,0,0,0,0,0,0,0,0,0,0,0,0,0,0,0,0,0,0,0,0,0,0,0,0,0,0,0,0,0,0,0,0],"id":6,"left_children":[1,3,5,7,9,11,13,-1,15,17,19,21,23,25,-1,27,29,31,-1,33,-1,35,37,-1,-1,39,41,43,45,-1,-1,47,-1,49,51,-1,53,55,-1,57,59,61,63,-1,65,67,-1,-1,-1,69,-1,71,-1,-1,73,-1,75,77,79,81,83,85,-1,87,89,-1,-1,-1,-1,-1,-1,-1,-1,-1,-1,-1,-1,-1,-1,-1,-1,-1,-1,-1,-1,-1,-1,-1,-1,-1,-1],"loss_changes":[2.6706624E3,4.4132117E2,1.4961971E3,2.2519287E1,1.8744386E2,2.296128E2,8.231564E2,0E0,4.2872192E1,9.51651E0,4.1558975E1,2.6734735E2,3.408142E0,2.4424658E2,0E0,3.614862E1,2.8753345E1,2.8459854E0,0E0,7.1696167E0,0E0,6.0367607E1,7.2931335E1,0E0,0E0,9.959717E1,7.233374E1,6.888365E1,3.050232E-1,0E0,0E0,4.659958E-1,0E0,6.0453186E0,1.478204E1,0E0,3.864688E1,4.035095E0,0E0,8.6915474E1,5.5322266E1,3.1712532E1,1.3395892E2,0E0,9.003838E0,2.1750221E0,0E0,0E0,0E0,1.0278015E0,0E0,1.3090801E-1,0E0,0E0,2.2497375E1,0E0,1.1846611E1,4.3833218E1,4.2210365E1,1.9140057E2,3.9515137E1,1.0919952E1,0E0,1.7200188E1,2.8339651E1,0E0,0E0,0E0,0E0,0E0,0E0,0E0,0E0,0E0,0E0,0E0,0E0,0E0,0E0,0E0,0E0,0E0,0E0,0E0,0E0,0E0,0E0,0E0,0E0,0E0,0E0],"parents":[2147483647,0,0,1,1,2,2,3,3,4,4,5,5,6,6,8,8,9,9,10,10,11,11,12,12,13,13,15,15,16,16,17,17,19,19,21,21,22,22,25,25,26,26,27,27,28,28,31,31,33,33,34,34,36,36,37,37,39,39,40,40,41,41,42,42,44,44,45,45,49,49,51,51,54,54,56,56,57,57,58,58,59,59,60,60,61,61,63,63,64,64],"right_children":[2,4,6,8,10,12,14,-1,16,18,20,22,24,26,-1,28,30,32,-1,34,-1,36,38,-1,-1,40,42,44,46,-1,-1,48,-1,50,52,-1,54,56,-1,58,60,62,64,-1,66,68,-1,-1,-1,70,-1,72,-1,-1,74,-1,76,78,80,82,84,86,-1,88,90,-1,-1,-1,-1,-1,-1,-1,-1,-1,-1,-1,-1,-1,-1,-1,-1,-1,-1,-1,-1,-1,-1,-1,-1,-1,-1],"split_conditions":[5.1062603E0,1.2703922E5,1.01132295E4,2.2340426E-1,2.2580644E-1,3E0,1.2E1,-5.135187E-2,1.0131793E5,5.4357434E-3,1.9767468E0,1E4,4.3737984E0,2E0,-5.1509537E-2,7.7660686E-1,4.106737E1,4.769138E5,-0E0,2.9E1,-4.5869563E-2,2.0476124E0,1.0855393E0,-1.8268922E-2,-5.1666178E-2,1.1817543E2,1.8621752E4,1.994343E4,-1.3894232E-1,-5.0034486E-2,4.80052E-2,1.682243E-1,-1.8906793E-2,1.9670329E0,-1.4285715E-1,-4.8355E-2,1.14E2,3.520676E1,5.1398467E-2,5.4357434E-3,6.7600695E4,2.0386754E4,1.3340655E5,5.213205E-2,2.2584553E4,3.623224E1,-5.1741585E-2,-5.161859E-2,-3.344119E-2,1.5515212E5,6.8665138E-3,6.850808E-1,-3.0567197E-2,-4.3043658E-2,3.937467E0,-5.1664744E-2,1.7396896E4,4.9E1,1.0131793E5,6.0161543E0,7.29927E-3,1.14E2,-4.9376957E-2,1.5E5,6.0022664E-3,-3.4567437E-3,-5.183993E-2,-1.927457E-2,-5.088396E-2,3.5539187E-2,5.0678056E-2,3.3383418E-2,5.115577E-2,4.941771E-2,-1.6329372E-2,-4.8687826E-3,-5.1082682E-2,-5.035518E-2,6.5135225E-3,-5.326178E-2,5.1719006E-2,-3.0489724E-2,4.1032027E-2,-1.3018776E-2,4.888627E-2,-4.435336E-3,4.7642782E-2,-5.1472235E-2,9.637251E-3,-4.22468E-2,3.17576E-2],"split_indices":[3,15,0,26,26,29,3,0,15,11,28,15,9,28,0,29,17,6,0,27,0,27,29,0,0,8,0,0,19,0,0,26,0,19,19,0,8,27,0,11,15,15,7,0,0,17,0,0,0,15,0,26,0,0,2,0,15,17,15,3,26,8,0,15,5,0,0,0,0,0,0,0,0,0,0,0,0,0,0,0,0,0,0,0,0,0,0,0,0,0,0],"split_type":[0,0,0,0,0,0,0,0,0,0,0,0,0,0,0,0,0,0,0,0,0,0,0,0,0,0,0,0,0,0,0,0,0,0,0,0,0,0,0,0,0,0,0,0,0,0,0,0,0,0,0,0,0,0,0,0,0,0,0,0,0,0,0,0,0,0,0,0,0,0,0,0,0,0,0,0,0,0,0,0,0,0,0,0,0,0,0,0,0,0,0],"sum_hessian":[3.0106873E3,9.5870984E2,2.0519773E3,8.3737085E2,1.21339005E2,4.1543985E2,1.6365375E3,6.7505035E2,1.623205E2,3.901904E1,8.231996E1,1.838656E2,2.3157426E2,1.5377529E3,9.87845E1,1.5035947E2,1.1961034E1,3.461481E1,4.4042287E0,7.742834E1,4.8916264E0,8.664106E1,9.722454E1,3.2077937E0,2.2836647E2,1.3977455E3,1.4000755E2,3.300071E1,1.1735876E2,3.90225E0,8.0587845E0,3.1184391E1,3.4304206E0,6.689918E1,1.0529157E1,7.563284E0,7.9077774E1,9.012509E1,7.0994477E0,9.7856255E1,1.2998892E3,4.066898E1,9.933858E1,9.5744705E0,2.3426237E1,1.1949402E1,1.05409355E2,2.8017574E1,3.1668165E0,6.3482452E1,3.4167259E0,7.108541E0,3.4206157E0,4.659483E0,7.441829E1,6.6970856E1,2.3154238E1,5.2977577E1,4.487868E1,4.4118652E2,8.5870264E2,3.701987E1,3.6491086E0,5.303484E1,4.6303738E1,4.410378E0,1.901586E1,3.1857474E0,8.763654E0,7.077954E0,5.64045E1,3.1758285E0,3.9327123E0,6.9514275E1,4.90402E0,7.579242E0,1.5574995E1,1.878625E1,3.4191326E1,3.6527898E0,4.122589E1,3.661145E1,4.0457507E2,9.267462E0,8.494352E2,3.932797E0,3.3087074E1,4.862432E1,4.4105167E0,5.1296263E0,4.117411E1],"tree_param":{"num_deleted":"0","num_feature":"30","num_nodes":"91","size_leaf_vector":"1"}},{"base_weights":[2.41746E-3,-1.4873502E0,1.327162E0,-1.5205237E0,1.2894531E0,-1.4337444E0,1.4515452E0,-1.5866295E0,-2.2960997E-1,-0E0,5.0522238E-2,4.0768743E-2,-1.6402409E0,1.5148602E0,6.869805E-1,9.243305E-1,-1.6037467E0,1.5261154E0,-1.5568492E0,-5.0436173E-2,-2.8629798E-2,1.1416589E0,1.6015983E0,-5.04397E-2,8.989628E-1,-3.5091797E-3,4.510997E-2,-1.1356502E0,-1.6499876E0,5.0726004E-2,9.444744E-3,-4.987911E-2,-9.449218E-3,1.310012E0,-5.2271858E-2,1.6129373E0,9.7002435E-1,1.0751024E0,-5.0178606E-2,-1.602006E0,5.585308E-1,-5.0584085E-2,-1.6065818E0,-1.1411463E0,1.4015032E0,9.831929E-1,1.619206E0,-5.298776E-2,1.5746212E0,-4.3674115E-2,1.200702E0,-4.98841E-2,-1.9370075E-2,3.747846E-2,-5.0140172E-2,-4.4647954E-2,-5.0444424E-2,9.2509715E-3,-5.8105327E-2,4.4050395E-2,-4.597147E-2,5.0598536E-2,-2.4456298E-2,4.9189907E-2,4.4023685E-2,5.0181046E-2,3.230334E-2,4.20854E-2,9.048319E-3],"categories":[],"categories_nodes":[],"categories_segments":[],"categories_sizes":[],"default_left":[0,0,0,0,0,0,0,0,0,0,0,0,0,0,0,0,0,0,0,0,0,0,0,0,0,0,0,0,0,0,0,0,0,0,0,0,0,0,0,0,0,0,0,0,0,0,0,0,0,0,0,0,0,0,0,0,0,0,0,0,0,0,0,0,0,0,0,0,0],"id":7,"left_children":[1,3,5,7,9,11,13,15,17,-1,-1,-1,19,21,23,25,27,29,31,-1,-1,33,35,-1,37,-1,-1,39,41,-1,-1,-1,-1,43,-1,45,47,49,-1,51,53,-1,55,57,59,61,63,-1,65,-1,67,-1,-1,-1,-1,-1,-1,-1,-1,-1,-1,-1,-1,-1,-1,-1,-1,-1,-1],"loss_changes":[5.9830605E3,1.3165869E2,5.512866E2,1.2011841E2,8.6782875E0,4.0154114E1,7.401294E1,5.786792E1,1.6075839E2,0E0,0E0,0E0,1.3885956E0,4.5443848E1,5.918591E1,5.6494875E0,2.8372803E1,5.6678085E0,4.914337E0,0E0,0E0,1.3029822E2,7.821533E0,0E0,4.9119453E1,0E0,0E0,9.5240234E1,1.3017578E0,0E0,0E0,0E0,0E0,5.6987762E1,0E0,4.039551E0,3.4488815E1,3.2363068E1,0E0,5.1506805E0,4.0205406E1,0E0,4.34375E0,1.0752524E1,4.8119995E1,1.4828717E1,2.9199219E0,0E0,3.7646103E-1,0E0,1.7351318E1,0E0,0E0,0E0,0E0,0E0,0E0,0E0,0E0,0E0,0E0,0E0,0E0,0E0,0E0,0E0,0E0,0E0,0E0],"parents":[2147483647,0,0,1,1,2,2,3,3,4,4,5,5,6,6,7,7,8,8,12,12,13,13,14,14,15,15,16,16,17,17,18,18,21,21,22,22,24,24,27,27,28,28,33,33,35,35,36,36,37,37,39,39,40,40,42,42,43,43,44,44,45,45,46,46,48,48,50,50],"right_children":[2,4,6,8,10,12,14,16,18,-1,-1,-1,20,22,24,26,28,30,32,-1,-1,34,36,-1,38,-1,-1,40,42,-1,-1,-1,-1,44,-1,46,48,50,-1,52,54,-1,56,58,60,62,64,-1,66,-1,68,-1,-1,-1,-1,-1,-1,-1,-1,-1,-1,-1,-1,-1,-1,-1,-1,-1,-1],"split_conditions":[4.479772E-3,1.2211979E6,5.25E3,6.40233E-1,2.1460327E1,3E0,2E0,4.3737984E0,6.686205E-1,-0E0,5.0522238E-2,4.0768743E-2,1.7855955E4,3.07E4,6.353572E-2,1.168927E1,-6.6645646E-1,9.378272E-1,1.5029642E5,-5.0436173E-2,-2.8629798E-2,9.8687685E-1,4E1,-5.04397E-2,9.959747E-1,-3.5091797E-3,4.510997E-2,4.5134125E1,3.623224E1,5.0726004E-2,9.444744E-3,-4.987911E-2,-9.449218E-3,2.0476124E0,-5.2271858E-2,7.29927E-3,1.6021978E0,3.0264444E0,-5.0178606E-2,3.910822E1,7.253886E-2,-5.0584085E-2,1.26E2,2.74E4,3.269588E1,-6.3969123E-1,1.3E1,-5.298776E-2,1.11E2,-4.3674115E-2,9.963437E-1,-4.98841E-2,-1.9370075E-2,3.747846E-2,-5.0140172E-2,-4.4647954E-2,-5.0444424E-2,9.2509715E-3,-5.8105327E-2,4.4050395E-2,-4.597147E-2,5.0598536E-2,-2.4456298E-2,4.9189907E-2,4.4023685E-2,5.0181046E-2,3.230334E-2,4.20854E-2,9.048319E-3],"split_indices":[16,15,0,26,17,29,28,9,26,0,0,0,15,0,29,17,10,29,21,0,0,5,13,0,4,0,0,27,17,0,0,0,0,27,0,26,10,13,0,27,26,0,9,21,13,10,13,0,9,0,5,0,0,0,0,0,0,0,0,0,0,0,0,0,0,0,0,0,0],"split_type":[0,0,0,0,0,0,0,0,0,0,0,0,0,0,0,0,0,0,0,0,0,0,0,0,0,0,0,0,0,0,0,0,0,0,0,0,0,0,0,0,0,0,0,0,0,0,0,0,0,0,0,0,0,0,0,0,0,0,0,0,0,0,0,0,0,0,0,0,0],"sum_hessian":[3.0314133E3,1.426795E3,1.6046184E3,1.4100312E3,1.6763826E1,6.909414E1,1.5355243E3,1.3412474E3,6.878381E1,3.9173503E0,1.2846477E1,4.6854005E0,6.440874E1,1.4178783E3,1.17645966E2,9.005852E0,1.3322416E3,2.9573057E1,3.921076E1,6.050434E1,3.9043972E0,2.6787643E2,1.1500018E3,9.569453E0,1.0807651E2,3.1861787E0,5.819673E0,1.2019802E2,1.2120436E3,2.5924797E1,3.6482599E0,3.6027397E1,3.183361E0,2.5318625E2,1.4690189E1,1.129411E3,2.0590849E1,1.0123924E2,6.8372655E0,9.4303604E1,2.5894413E1,6.5798236E2,5.540612E2,9.029695E0,2.4415656E2,1.1444352E1,1.1179667E3,3.661609E0,1.6929241E1,4.69887E0,9.6540375E1,8.8499E1,5.804603E0,1.9837982E1,6.056431E0,2.1610567E2,3.3795554E2,3.1772718E0,5.8524227E0,2.3879996E2,5.356596E0,8.271047E0,3.1733055E0,9.8371173E2,1.3425491E2,1.3777975E1,3.1512654E0,7.86827E1,1.7857676E1],"tree_param":{"num_deleted":"0","num_feature":"30","num_nodes":"69","size_leaf_vector":"1"}},{"base_weights":[-8.620114E-3,-1.4688889E0,1.290394E0,-1.5021735E0,9.7480136E-1,-1.4464915E0,1.4091883E0,-1.5545278E0,-3.8595778E-1,-4.93026E-2,4.999031E-2,2.9861724E-2,-4.9424823E-2,-2.5491634E-1,1.4973267E0,1.0731958E0,-1.5750393E0,1.5847179E0,-1.5508981E0,-5.0530516E-2,6.9679755E-1,1.5204482E0,-4.977877E-2,2.232771E-3,4.5242574E-2,-1.1307912E0,-1.6197158E0,3.2642417E-2,4.9571533E-2,-4.906108E-2,-1.609368E-2,-5.0072297E-2,1.278988E0,1.2128272E0,1.5872163E0,-1.5798746E0,5.132104E-1,-4.944395E-2,-1.5069219E0,5.6715226E-1,4.974977E-2,-5.13329E-1,1.4918188E0,1.0644904E0,1.6022154E0,-4.891003E-2,-2.601792E-2,3.6779534E-2,-4.99724E-2,5.2821238E-2,-4.962303E-2,-2.9859217E-2,3.6175326E-2,1.3997581E-2,-5.489943E-2,4.6665754E-2,-2.6590297E-2,-0E0,4.826609E-2,4.8458125E-2,4.1043185E-2],"categories":[],"categories_nodes":[],"categories_segments":[],"categories_sizes":[],"default_left":[0,0,0,0,0,0,0,0,0,0,0,0,0,0,0,0,0,0,0,0,0,0,0,0,0,0,0,0,0,0,0,0,0,0,0,0,0,0,0,0,0,0,0,0,0,0,0,0,0,0,0,0,0,0,0,0,0,0,0,0,0],"id":8,"left_children":[1,3,5,7,9,11,13,15,17,-1,-1,-1,-1,19,21,23,25,27,29,-1,31,33,-1,-1,-1,35,37,-1,-1,-1,-1,-1,39,41,43,45,47,-1,49,51,-1,53,55,57,59,-1,-1,-1,-1,-1,-1,-1,-1,-1,-1,-1,-1,-1,-1,-1,-1],"loss_changes":[5.6585205E3,1.14427E2,5.1345557E2,8.071777E1,3.44817E1,3.246875E1,2.2208398E2,7.154834E1,1.4325555E2,0E0,0E0,0E0,0E0,1.03791595E2,1.0511987E2,4.2921486E0,2.5605713E1,3.245201E-1,3.057106E0,0E0,6.3167686E1,2.882959E1,0E0,0E0,0E0,8.9177155E1,3.2592773E0,0E0,0E0,0E0,0E0,0E0,9.618397E0,1.2303497E2,8.749023E0,3.0157166E0,4.0368446E1,0E0,1.1661743E2,1.3148401E1,0E0,4.6051247E1,3.3489716E1,1.9167637E1,2.9606934E0,0E0,0E0,0E0,0E0,0E0,0E0,0E0,0E0,0E0,0E0,0E0,0E0,0E0,0E0,0E0,0E0],"parents":[2147483647,0,0,1,1,2,2,3,3,4,4,5,5,6,6,7,7,8,8,13,13,14,14,15,15,16,16,17,17,18,18,20,20,21,21,25,25,26,26,32,32,33,33,34,34,35,35,36,36,38,38,39,39,41,41,42,42,43,43,44,44],"right_children":[2,4,6,8,10,12,14,16,18,-1,-1,-1,-1,20,22,24,26,28,30,-1,32,34,-1,-1,-1,36,38,-1,-1,-1,-1,-1,40,42,44,46,48,-1,50,52,-1,54,56,58,60,-1,-1,-1,-1,-1,-1,-1,-1,-1,-1,-1,-1,-1,-1,-1,-1],"split_conditions":[4.479772E-3,9.8E5,5.25E3,6.5528953E-1,1.1373073E0,3E0,4.223423E0,4.3737984E0,6.686205E-1,-4.93026E-2,4.999031E-2,2.9861724E-2,-4.9424823E-2,2.2340426E-1,1.2E1,1.24E5,-6.6645646E-1,1.8621752E4,4.5134125E1,-5.0530516E-2,2.0976727E-1,6.0161543E0,-4.977877E-2,2.232771E-3,4.5242574E-2,4.5134125E1,7.009922E0,3.2642417E-2,4.9571533E-2,-4.906108E-2,-1.609368E-2,-5.0072297E-2,1.10314336E5,1.0855393E0,2.0476124E0,3.910822E1,1.0855393E0,-4.944395E-2,8E0,3.0208714E-3,4.974977E-2,1E0,1.36E2,5.6599754E-1,9.893333E-1,-4.891003E-2,-2.601792E-2,3.6779534E-2,-4.99724E-2,5.2821238E-2,-4.962303E-2,-2.9859217E-2,3.6175326E-2,1.3997581E-2,-5.489943E-2,4.6665754E-2,-2.6590297E-2,-0E0,4.826609E-2,4.8458125E-2,4.1043185E-2],"split_indices":[16,0,0,26,19,29,3,9,26,0,0,0,0,26,3,0,10,0,27,0,10,3,0,0,0,27,3,0,0,0,0,0,7,29,27,27,29,0,3,24,0,29,9,10,24,0,0,0,0,0,0,0,0,0,0,0,0,0,0,0,0],"split_type":[0,0,0,0,0,0,0,0,0,0,0,0,0,0,0,0,0,0,0,0,0,0,0,0,0,0,0,0,0,0,0,0,0,0,0,0,0,0,0,0,0,0,0,0,0,0,0,0,0,0,0,0,0,0,0,0,0,0,0,0,0],"sum_hessian":[2.982811E3,1.4042766E3,1.5785344E3,1.385485E3,1.8791721E1,6.5584404E1,1.51295E3,1.3232893E3,6.219558E1,3.8673706E0,1.4924352E1,4.9200797E0,6.0664326E1,7.603534E1,1.4369147E3,1.0171832E1,1.3131176E3,2.3061548E1,3.913403E1,3.0401564E1,4.5633778E1,1.4265491E3,1.0365603E1,3.1908257E0,6.981006E0,1.2043383E2,1.1926837E3,3.1473632E0,1.9914185E1,3.5978374E1,3.1556556E0,8.941073E0,3.6692703E1,2.5501804E2,1.171531E3,9.46449E1,2.5788933E1,9.5088245E2,2.4180127E2,1.2934307E1,2.3758396E1,3.542106E1,2.1959697E2,3.3064976E1,1.1384661E3,8.813498E1,6.5099163E0,1.9499832E1,6.2891E0,1.0345161E1,2.3145612E2,3.6914208E0,9.242887E0,2.0300829E1,1.5120229E1,2.139425E2,5.654461E0,1.1241454E1,2.1823523E1,1.0773677E3,6.1098373E1],"tree_param":{"num_deleted":"0","num_feature":"30","num_nodes":"61","size_leaf_vector":"1"}},{"base_weights":[-1.5906629E-3,1.1883729E0,-1.4918802E0,-1.471978E0,1.3287985E0,-1.0792176E0,-1.5834264E0,2.6432242E-2,-1.6081241E0,1.411705E0,4.5232475E-1,-1.4760855E0,5.028706E-2,-4.850465E-2,-1.4683963E0,-4.888236E-2,-3.6582608E-2,1.5100437E0,9.518137E-1,1.0345677E0,-8.554235E-1,-4.866154E-2,-1.2782327E0,4.926921E-2,-1.5778006E0,1.5291544E0,9.909616E-1,1.1943381E0,-3.940796E-1,1.1947802E0,-4.7005653E-2,-1.6982201E0,1.076639E0,-9.3257916E-1,-4.848415E-2,-4.8792798E-2,-8.143008E-1,8.658362E-1,1.5423284E0,1.5069872E0,-9.564043E-2,-4.3731257E-2,1.2856162E0,-9.312904E-1,1.3157352E0,1.2999659E0,-4.7591537E-2,-5.279612E-2,-3.3664793E-2,-8.668911E-3,4.6286076E-2,-3.537178E-1,-1.5370392E0,4.6664864E-2,-4.853234E-2,-5.3311236E-2,3.9363556E-2,3.6539588E-2,4.682185E-2,3.3220507E-2,4.855589E-2,4.7835115E-2,-4.3456174E-2,4.0491935E-2,-5.840349E-2,-4.5624617E-2,4.7631506E-2,2.1649327E-2,4.7795076E-2,4.7376353E-2,2.5997795E-2,1.0298179E-2,-4.4340637E-2,-3.3324078E-2,-4.8268527E-2],"categories":[],"categories_nodes":[],"categories_segments":[],"categories_sizes":[],"default_left":[0,0,0,0,0,0,0,0,0,0,0,0,0,0,0,0,0,0,0,0,0,0,0,0,0,0,0,0,0,0,0,0,0,0,0,0,0,0,0,0,0,0,0,0,0,0,0,0,0,0,0,0,0,0,0,0,0,0,0,0,0,0,0,0,0,0,0,0,0,0,0,0,0,0,0],"id":9,"left_children":[1,3,5,7,9,11,13,-1,15,17,19,21,-1,-1,23,-1,-1,25,27,29,31,-1,33,-1,35,37,39,41,43,45,-1,47,49,51,-1,-1,53,55,57,59,61,-1,63,65,67,69,-1,-1,-1,-1,-1,71,73,-1,-1,-1,-1,-1,-1,-1,-1,-1,-1,-1,-1,-1,-1,-1,-1,-1,-1,-1,-1,-1,-1],"loss_changes":[5.2229595E3,6.119402E2,4.8961426E1,2.6520828E1,1.1278345E2,2.6041406E2,3.5637207E0,0E0,1.5934753E-1,6.3873047E1,1.0265214E2,5.5113525E0,0E0,0E0,8.2768616E1,0E0,0E0,1.1206055E1,8.1980896E1,3.9029266E1,6.780609E1,0E0,1.0000259E1,0E0,8.322327E0,9.485596E0,2.3719986E1,5.162732E1,3.5264114E1,2.5911034E1,0E0,5.429535E-1,8.209413E0,1.5300476E1,0E0,0E0,2.7585033E1,2.654714E1,6.133545E0,8.213959E-1,3.1230324E1,0E0,4.280957E1,4.3666992E1,1.16226E0,9.886887E0,0E0,0E0,0E0,0E0,0E0,1.811475E1,2.1189499E-1,0E0,0E0,0E0,0E0,0E0,0E0,0E0,0E0,0E0,0E0,0E0,0E0,0E0,0E0,0E0,0E0,0E0,0E0,0E0,0E0,0E0,0E0],"parents":[2147483647,0,0,1,1,2,2,3,3,4,4,5,5,6,6,8,8,9,9,10,10,11,11,14,14,17,17,18,18,19,19,20,20,22,22,24,24,25,25,26,26,27,27,28,28,29,29,31,31,32,32,33,33,36,36,37,37,38,38,39,39,40,40,42,42,43,43,44,44,45,45,51,51,52,52],"right_children":[2,4,6,8,10,12,14,-1,16,18,20,22,-1,-1,24,-1,-1,26,28,30,32,-1,34,-1,36,38,40,42,44,46,-1,48,50,52,-1,-1,54,56,58,60,62,-1,64,66,68,70,-1,-1,-1,-1,-1,72,74,-1,-1,-1,-1,-1,-1,-1,-1,-1,-1,-1,-1,-1,-1,-1,-1,-1,-1,-1,-1,-1,-1],"split_conditions":[4E0,5.25E3,9.8920894E-1,3E0,2E0,6.353572E-2,2.097E4,2.6432242E-2,1.0058964E0,1.1E1,7.604388E4,7.073215E0,5.028706E-2,-4.850465E-2,4E0,-4.888236E-2,-3.6582608E-2,9.959747E-1,2E0,9.863558E-1,1.8809684E5,-4.866154E-2,-3.322259E-3,4.926921E-2,5.186971E-3,1.25E-2,8.1782484E4,1.01132295E4,5.4357434E-3,3.125352E-1,-4.7005653E-2,1.3453339E0,2.1100219E-1,3.5825754E4,-4.848415E-2,-4.8792798E-2,8.025963E-1,4.4596234E4,6.353572E-2,3.0208714E-3,3.0585876E0,-4.3731257E-2,9.924261E4,1.0163773E0,5.2073735E-1,2.1471021E4,-4.7591537E-2,-5.279612E-2,-3.3664793E-2,-8.668911E-3,4.6286076E-2,1.25E2,4.2228285E4,4.6664864E-2,-4.853234E-2,-5.3311236E-2,3.9363556E-2,3.6539588E-2,4.682185E-2,3.3220507E-2,4.855589E-2,4.7835115E-2,-4.3456174E-2,4.0491935E-2,-5.840349E-2,-4.5624617E-2,4.7631506E-2,2.1649327E-2,4.7795076E-2,4.7376353E-2,2.5997795E-2,1.0298179E-2,-4.4340637E-2,-3.3324078E-2,-4.8268527E-2],"split_indices":[14,0,29,29,28,29,0,0,26,13,22,13,0,0,29,0,0,4,14,4,15,0,19,0,23,26,22,0,11,24,0,18,26,15,0,0,23,6,29,24,9,0,21,28,19,22,0,0,0,0,0,9,6,0,0,0,0,0,0,0,0,0,0,0,0,0,0,0,0,0,0,0,0,0,0],"split_type":[0,0,0,0,0,0,0,0,0,0,0,0,0,0,0,0,0,0,0,0,0,0,0,0,0,0,0,0,0,0,0,0,0,0,0,0,0,0,0,0,0,0,0,0,0,0,0,0,0,0,0,0,0,0,0,0,0,0,0,0,0,0,0,0,0,0,0,0,0,0,0,0,0,0,0],"sum_hessian":[2.9449666E3,1.637451E3,1.3075155E3,8.201547E1,1.5554355E3,2.3782822E2,1.0696874E3,4.415716E0,7.7599754E1,1.4208599E3,1.3457567E2,2.0795865E2,2.9869568E1,8.2732477E2,2.4236253E2,7.302402E1,4.5757327E0,1.1701915E3,2.5066841E2,9.3184784E1,4.139089E1,1.1896614E2,8.8992516E1,8.1557E0,2.3420683E2,1.1282657E3,4.1925735E1,2.124681E2,3.8200314E1,8.7865944E1,5.3188424E0,2.8863869E1,1.252702E1,4.4324062E1,4.466845E1,2.1995432E2,1.4252516E1,2.2249424E1,1.1060164E3,2.8462353E1,1.3463384E1,6.9831424E0,2.0548495E2,2.9146671E1,9.053644E0,8.4749855E1,3.116087E0,2.5731012E1,3.1328568E0,3.14341E0,9.383611E0,2.2806942E1,2.151712E1,3.5534315E0,1.0699084E1,3.1388628E0,1.9110561E1,6.0028877E1,1.0459874E3,6.6447325E0,2.1817621E1,5.9448495E0,7.5185337E0,2.0157585E2,3.9090984E0,2.3683323E1,5.4633493E0,3.1114388E0,5.9422054E0,5.1238754E1,3.35111E1,1.40669365E1,8.7400055E0,3.544336E0,1.7972786E1],"tree_param":{"num_deleted":"0","num_feature":"30","num_nodes":"75","size_leaf_vector":"1"}},{"base_weights":[-2.0704567E-3,-1.4037586E0,1.2391626E0,3.192509E-1,-1.5467503E0,-1.3209951E0,1.3394123E0,8.790974E-1,-1.5335836E0,-1.5641302E0,-7.627275E-1,4.7762956E-2,-4.711805E-2,-3.0110198E-1,1.4324356E0,-4.8518803E-2,1.2532295E0,-2.9045349E-2,-4.8176073E-2,-4.762273E-2,-1.4738996E0,1.333042E0,-4.7620047E-2,-4.8247464E-2,6.62758E-1,1.4586545E0,-4.875791E-2,1.39631E0,-4.021351E-2,5.0699163E-2,-4.751186E-2,4.8926707E-2,2.5087964E-2,-4.660384E-2,1.1841753E0,8.404937E-1,1.4922944E0,9.1167295E-1,1.5778686E0,1.3625838E0,-9.31497E-3,-1.596754E0,1.2225373E0,1.2718015E0,1.5402768E0,-4.9441632E-2,4.6510708E-2,4.8258156E-2,3.3196397E-2,4.5407318E-2,1.2791867E-2,-3.5573043E-2,-5.272917E-2,-4.241988E-2,4.2759866E-2,-8.063225E-3,4.534674E-2,4.665213E-2,3.8528558E-2],"categories":[],"categories_nodes":[],"categories_segments":[],"categories_sizes":[],"default_left":[0,0,0,0,0,0,0,0,0,0,0,0,0,0,0,0,0,0,0,0,0,0,0,0,0,0,0,0,0,0,0,0,0,0,0,0,0,0,0,0,0,0,0,0,0,0,0,0,0,0,0,0,0,0,0,0,0,0,0],"id":10,"left_children":[1,3,5,7,9,11,13,15,17,19,21,-1,-1,23,25,-1,27,-1,-1,-1,29,31,-1,-1,33,35,-1,37,-1,-1,-1,-1,-1,-1,39,41,43,45,47,49,-1,51,53,55,57,-1,-1,-1,-1,-1,-1,-1,-1,-1,-1,-1,-1,-1,-1],"loss_changes":[5.078743E3,3.3794873E2,3.9751416E2,1.0907697E2,1.6898926E1,4.26754E1,2.2752026E2,7.563903E1,5.8354187E-1,2.0625E0,4.8237907E1,0E0,0E0,1.0095989E2,1.13259766E2,0E0,2.6306183E1,0E0,0E0,0E0,8.9341675E1,7.803135E-1,0E0,0E0,5.3370262E1,2.8714844E1,0E0,5.4825897E0,0E0,0E0,0E0,0E0,0E0,0E0,1.011504E1,6.770189E1,1.3548096E1,3.0629143E1,2.5003052E-1,4.4728966E0,0E0,1.4773178E-1,3.3780685E1,8.802557E1,3.6362305E0,0E0,0E0,0E0,0E0,0E0,0E0,0E0,0E0,0E0,0E0,0E0,0E0,0E0,0E0],"parents":[2147483647,0,0,1,1,2,2,3,3,4,4,5,5,6,6,7,7,8,8,9,9,10,10,13,13,14,14,16,16,20,20,21,21,24,24,25,25,27,27,34,34,35,35,36,36,37,37,38,38,39,39,41,41,42,42,43,43,44,44],"right_children":[2,4,6,8,10,12,14,16,18,20,22,-1,-1,24,26,-1,28,-1,-1,-1,30,32,-1,-1,34,36,-1,38,-1,-1,-1,-1,-1,-1,40,42,44,46,48,50,-1,52,54,56,58,-1,-1,-1,-1,-1,-1,-1,-1,-1,-1,-1,-1,-1,-1],"split_conditions":[4.479772E-3,3.563706E0,5.1005303E3,7.2154427E0,2.8551197E5,9.946758E-1,4.223423E0,4.633292E4,3.4091453E4,7.009922E0,5E0,4.7762956E-2,-4.711805E-2,4.049532E-1,1.2E1,-4.8518803E-2,1.254049E3,-2.9045349E-2,-4.8176073E-2,-4.762273E-2,8E0,7.7660686E-1,-4.7620047E-2,-4.8247464E-2,2.2033899E-1,1.14E2,-4.875791E-2,5.1062603E0,-4.021351E-2,5.0699163E-2,-4.751186E-2,4.8926707E-2,2.5087964E-2,-4.660384E-2,8.177378E-1,2.8463729E-2,6.0161543E0,1.0988387E0,9.01128E-1,9.480519E-1,-9.31497E-3,-2.1719405E-1,6.355974E1,7.24745E4,9.893333E-1,-4.9441632E-2,4.6510708E-2,4.8258156E-2,3.3196397E-2,4.5407318E-2,1.2791867E-2,-3.5573043E-2,-5.272917E-2,-4.241988E-2,4.2759866E-2,-8.063225E-3,4.534674E-2,4.665213E-2,3.8528558E-2],"split_indices":[16,14,15,13,7,16,3,7,22,3,14,0,0,10,3,0,8,0,0,0,3,29,0,0,26,8,0,3,0,0,0,0,0,0,18,10,3,19,10,19,0,19,12,15,24,0,0,0,0,0,0,0,0,0,0,0,0,0,0],"split_type":[0,0,0,0,0,0,0,0,0,0,0,0,0,0,0,0,0,0,0,0,0,0,0,0,0,0,0,0,0,0,0,0,0,0,0,0,0,0,0,0,0,0,0,0,0,0,0,0,0,0,0,0,0,0,0,0,0,0,0],"sum_hessian":[2.9189077E3,1.3708802E3,1.5480276E3,1.04987526E2,1.2658927E3,5.824947E1,1.4897781E3,8.070768E1,2.4279846E1,1.2382175E3,2.7675278E1,4.5230975E0,5.372637E1,7.987321E1,1.4099049E3,1.0440961E1,7.026672E1,3.0722203E0,2.1207626E1,9.819476E2,2.5626993E2,7.7628317E0,1.9912445E1,3.3915417E1,4.5957787E1,1.3980024E3,1.1902445E1,6.66734E1,3.5933192E0,8.518752E0,2.4775116E2,4.584531E0,3.178301E0,8.679012E0,3.7278774E1,7.2439545E1,1.3255629E3,1.8484747E1,4.8188656E1,3.3371235E1,3.9075403E0,9.737764E0,6.270178E1,2.3777058E2,1.0877922E3,3.6283562E0,1.485639E1,4.481278E1,3.3758743E0,2.859137E1,4.7798653E0,3.1498833E0,6.587881E0,4.4004364E0,5.8301342E1,3.196267E1,2.0580792E2,1.0275116E3,6.0280643E1],"tree_param":{"num_deleted":"0","num_feature":"30","num_nodes":"59","size_leaf_vector":"1"}},{"base_weights":[-3.5128726E-3,-1.3914609E0,1.2217743E0,1.7312087E-1,-1.5233946E0,-1.3285737E0,1.342111E0,-4.710442E-2,7.7083564E-1,-1.5392729E0,-8.3281726E-1,2.943412E-2,-1.5166527E0,-1.06092796E-1,1.420861E0,1.1691718E0,-4.670863E-2,-4.683287E-2,-1.450602E0,1.2731001E0,-4.6852794E-2,-4.668729E-2,-2.394208E-2,-1.5543432E0,8.122878E-1,1.4448016E0,-4.7838688E-2,-4.756835E-2,1.3064499E0,4.9656697E-2,-4.6906758E-2,2.4327492E-2,4.7463E-2,-4.8448894E-2,-2.921726E-2,-4.7631975E-2,1.1543165E0,1.4533695E0,-4.479873E-2,4.6451036E-2,7.046175E-1,-5.1156566E-2,1.4027792E0,1.1754949E0,1.5110892E0,-4.870783E-2,4.7382303E-2,4.6730667E-2,1.5693152E-2,-1.07925255E-2,4.3130994E-2,4.5886032E-2,3.547306E-2],"categories":[],"categories_nodes":[],"categories_segments":[],"categories_sizes":[],"default_left":[0,0,0,0,0,0,0,0,0,0,0,0,0,0,0,0,0,0,0,0,0,0,0,0,0,0,0,0,0,0,0,0,0,0,0,0,0,0,0,0,0,0,0,0,0,0,0,0,0,0,0,0,0],"id":11,"left_children":[1,3,5,7,9,11,13,-1,15,17,19,-1,21,23,25,27,-1,-1,29,31,-1,-1,-1,33,35,37,-1,-1,39,-1,-1,-1,-1,-1,-1,-1,41,43,-1,-1,45,-1,47,49,51,-1,-1,-1,-1,-1,-1,-1,-1],"loss_changes":[4.9039067E3,2.792588E2,4.701936E2,1.0963463E2,1.3307861E1,3.0184837E1,1.6694702E2,0E0,7.287007E1,1.8305664E0,4.3804337E1,0E0,1.458313E0,1.0056169E2,1.0036157E2,2.5541931E1,0E0,0E0,8.5505554E1,6.7768E-1,0E0,0E0,0E0,6.168213E-1,3.8063614E1,3.486084E1,0E0,0E0,8.979622E0,0E0,0E0,0E0,0E0,0E0,0E0,0E0,2.9005589E1,2.1566162E1,0E0,0E0,3.8224472E1,0E0,4.8038864E0,9.548306E1,6.4331055E0,0E0,0E0,0E0,0E0,0E0,0E0,0E0,0E0],"parents":[2147483647,0,0,1,1,2,2,3,3,4,4,5,5,6,6,8,8,9,9,10,10,12,12,13,13,14,14,15,15,18,18,19,19,23,23,24,24,25,25,28,28,36,36,37,37,40,40,42,42,43,43,44,44],"right_children":[2,4,6,8,10,12,14,-1,16,18,20,-1,22,24,26,28,-1,-1,30,32,-1,-1,-1,34,36,38,-1,-1,40,-1,-1,-1,-1,-1,-1,-1,42,44,-1,-1,46,-1,48,50,52,-1,-1,-1,-1,-1,-1,-1,-1],"split_conditions":[4.479772E-3,3.563706E0,5.25E3,2.3031328E1,2.8551197E5,3E0,4.223423E0,-4.710442E-2,6.1E1,7.009922E0,5E0,2.943412E-2,1.6818182E4,2.3537908E-1,1.2E1,3.751971E4,-4.670863E-2,-4.683287E-2,8E0,2.2578444E-1,-4.6852794E-2,-4.668729E-2,-2.394208E-2,1.9195804E-1,6.8875836E4,3E0,-4.7838688E-2,-4.756835E-2,6.7691234E4,4.9656697E-2,-4.6906758E-2,2.4327492E-2,4.7463E-2,-4.8448894E-2,-2.921726E-2,-4.7631975E-2,2E0,6.0161543E0,-4.479873E-2,4.6451036E-2,9.480519E-1,-5.1156566E-2,5.8922887E-1,7.704596E4,9.893333E-1,-4.870783E-2,4.7382303E-2,4.6730667E-2,1.5693152E-2,-1.07925255E-2,4.3130994E-2,4.5886032E-2,3.547306E-2],"split_indices":[16,14,0,27,7,29,3,0,12,3,14,0,15,26,3,7,0,0,3,5,0,0,0,26,21,28,0,0,7,0,0,0,0,0,0,0,3,3,0,0,19,0,26,15,24,0,0,0,0,0,0,0,0],"split_type":[0,0,0,0,0,0,0,0,0,0,0,0,0,0,0,0,0,0,0,0,0,0,0,0,0,0,0,0,0,0,0,0,0,0,0,0,0,0,0,0,0,0,0,0,0,0,0,0,0,0,0,0,0],"sum_hessian":[2.8833643E3,1.3519766E3,1.5313877E3,1.0507843E2,1.2468981E3,6.8919136E1,1.4624686E3,2.6745043E1,7.833339E1,1.2186111E3,2.8286978E1,5.1176987E0,6.3801437E1,7.535701E1,1.3871116E3,6.696665E1,1.1366738E1,9.756943E2,2.4291684E2,7.21911E0,2.1067867E1,6.0227467E1,3.573969E0,2.925797E1,4.609904E1,1.3762703E3,1.0841275E1,3.0940638E0,6.387259E1,8.445684E0,2.3447115E2,3.1674635E0,4.051646E0,2.6173883E1,3.0840871E0,5.668252E0,4.0430786E1,1.3723529E3,3.9173892E0,4.5328503E1,1.8544086E1,3.1531115E0,3.7277676E1,2.3669987E2,1.1356531E3,5.0100923E0,1.3533994E1,3.1533842E1,5.7438345E0,3.4467773E1,2.022321E2,1.0746687E3,6.0984283E1],"tree_param":{"num_deleted":"0","num_feature":"30","num_nodes":"53","size_leaf_vector":"1"}},{"base_weights":[-6.1548483E-3,-1.3629645E0,1.1895754E0,2.387561E-1,-1.4940016E0,-1.0417676E0,1.304543E0,-4.5888443E-2,7.9404444E-1,-9.684473E-1,-1.5106844E0,1.135807E0,-1.5124439E0,-1.8753323E-1,1.3862389E0,1.1030121E0,-4.5919996E-2,-4.463475E-2,9.127026E-1,-4.6032876E-2,-1.4168806E0,-7.6886495E-3,4.728264E-2,-2.8338924E-2,-4.6390317E-2,-4.7739096E-2,5.2358806E-1,1.406559E0,-4.6740763E-2,1.2608778E0,-3.593233E-2,-0E0,4.331144E-2,4.8667185E-2,-4.6152707E-2,-3.8604933E-1,1.2422745E0,1.4148699E0,-4.312612E-2,-2.667968E-2,1.3725837E0,-5.0308526E-2,8.3276325E-1,1.1246453E-2,1.3832201E0,1.1376843E0,1.4752841E0,4.35907E-2,-1.6872492E-4,4.6933852E-2,-3.2050718E-2,4.5528606E-2,1.22228535E-2,-7.589793E-3,4.2326864E-2,2.801919E-2,4.4703122E-2],"categories":[],"categories_nodes":[],"categories_segments":[],"categories_sizes":[],"default_left":[0,0,0,0,0,0,0,0,0,0,0,0,0,0,0,0,0,0,0,0,0,0,0,0,0,0,0,0,0,0,0,0,0,0,0,0,0,0,0,0,0,0,0,0,0,0,0,0,0,0,0,0,0,0,0,0,0],"id":12,"left_children":[1,3,5,7,9,11,13,-1,15,17,19,21,23,25,27,29,-1,-1,31,-1,33,-1,-1,-1,-1,-1,35,37,-1,39,-1,-1,-1,-1,-1,41,43,45,-1,-1,47,-1,49,-1,51,53,55,-1,-1,-1,-1,-1,-1,-1,-1,-1,-1],"loss_changes":[4.6344873E3,2.810293E2,3.8967822E2,9.9449196E1,1.0452148E1,7.647783E1,1.7617383E2,0E0,5.5537113E1,3.7831852E1,2.1574707E0,8.290323E0,7.841644E-1,7.504675E1,8.21189E1,2.4925362E1,0E0,0E0,4.084296E0,0E0,9.04754E1,0E0,0E0,0E0,0E0,0E0,3.269103E1,3.234546E1,0E0,1.5519203E1,0E0,0E0,0E0,0E0,0E0,3.483117E1,3.1839828E0,2.2278564E1,0E0,0E0,6.889366E0,0E0,1.599214E1,0E0,2.875988E0,9.2628876E1,8.544922E0,0E0,0E0,0E0,0E0,0E0,0E0,0E0,0E0,0E0,0E0],"parents":[2147483647,0,0,1,1,2,2,3,3,4,4,5,5,6,6,8,8,9,9,10,10,11,11,12,12,13,13,14,14,15,15,18,18,20,20,26,26,27,27,29,29,35,35,36,36,37,37,40,40,42,42,44,44,45,45,46,46],"right_children":[2,4,6,8,10,12,14,-1,16,18,20,22,24,26,28,30,-1,-1,32,-1,34,-1,-1,-1,-1,-1,36,38,-1,40,-1,-1,-1,-1,-1,42,44,46,-1,-1,48,-1,50,-1,52,54,56,-1,-1,-1,-1,-1,-1,-1,-1,-1,-1],"split_conditions":[4.479772E-3,3.563706E0,8.612685E0,2.3031328E1,5E0,3E0,4.223423E0,-4.5888443E-2,6.1E1,3.5736828E5,7.009922E0,2.1838148E0,3.3238955E0,8.1526875E4,1.2E1,1.254049E3,-4.5919996E-2,-4.463475E-2,1.258962E-1,-4.6032876E-2,7.96458E0,-7.6886495E-3,4.728264E-2,-2.8338924E-2,-4.6390317E-2,-4.7739096E-2,1.1461642E1,3E0,-4.6740763E-2,5.8211164E4,-3.593233E-2,-0E0,4.331144E-2,4.8667185E-2,-4.6152707E-2,3.0208714E-3,-1.0299003E-1,6.0161543E0,-4.312612E-2,-2.667968E-2,1.8302947E0,-5.0308526E-2,9.4595236E-1,1.1246453E-2,5.369962E3,1.1335741E1,2.0476124E0,4.35907E-2,-1.6872492E-4,4.6933852E-2,-3.2050718E-2,4.5528606E-2,1.22228535E-2,-7.589793E-3,4.2326864E-2,2.801919E-2,4.4703122E-2],"split_indices":[16,14,1,27,14,29,3,0,9,22,3,29,9,21,3,8,0,0,5,0,3,0,0,0,0,0,1,28,0,21,0,0,0,0,0,24,19,3,0,0,28,0,24,0,8,1,27,0,0,0,0,0,0,0,0,0,0],"split_type":[0,0,0,0,0,0,0,0,0,0,0,0,0,0,0,0,0,0,0,0,0,0,0,0,0,0,0,0,0,0,0,0,0,0,0,0,0,0,0,0,0,0,0,0,0,0,0,0,0,0,0,0,0,0,0,0,0],"sum_hessian":[2.8563904E3,1.3381008E3,1.5182896E3,1.0112787E2,1.2369729E3,7.431305E1,1.4439766E3,2.4081713E1,7.704616E1,3.8423527E1,1.1985494E3,1.3144857E1,6.116819E1,7.488784E1,1.3690887E3,6.809191E1,8.954245E0,3.0168262E1,8.255265E0,9.543664E2,2.4418301E2,3.113897E0,1.003096E1,3.774975E0,5.7393215E1,2.5186316E1,4.9701523E1,1.3597903E3,9.298467E0,6.380277E1,4.2891464E0,3.056419E0,5.1988463E0,9.310918E0,2.348721E2,2.1895567E1,2.7805956E1,1.3559135E3,3.8768327E0,3.0723565E0,6.073041E1,1.065491E1,1.1240657E1,4.037047E0,2.3768908E1,2.4329448E2,1.1126189E3,5.744476E1,3.2856536E0,8.167484E0,3.0731726E0,2.075256E1,3.0163493E0,3.9890163E1,2.0340433E2,2.9999933E1,1.082619E3],"tree_param":{"num_deleted":"0","num_feature":"30","num_nodes":"57","size_leaf_vector":"1"}},{"base_weights":[3.323609E-3,-1.354222E0,1.1753939E0,6.470407E-2,-1.4710869E0,-1.2649217E0,1.2893102E0,6.863762E-1,-1.466908E0,-1.4895566E0,-7.330784E-1,2.9489927E-2,-1.4667957E0,1.3444924E0,5.429014E-1,-4.440962E-2,1.1383573E0,-4.578152E-2,-2.793623E-2,-1.4326509E0,-4.541295E-2,1.1984892E0,-4.5324378E-2,-2.2335354E-2,-4.520739E-2,1.3582734E0,-5.1474845E-1,-1.3273902E0,1.0295354E0,-4.591157E-2,1.3452809E0,-1.4697127E0,4.7178615E-2,1.6143052E-2,4.6532083E-2,1.1366456E0,1.4433457E0,-4.3527674E-2,4.329034E-2,1.2641215E-2,-1.6889436E0,1.1604338E0,-3.702967E-2,1.4084508E0,7.2209067E-3,-1.2688091E0,-4.5267094E-2,1.2719551E0,-2.2637643E-1,-6.38983E-3,1.453044E0,-1.4964324E0,-6.0043007E-2,-2.111816E-2,1.2995559E0,4.529459E-2,3.1792555E-2,-4.4814542E-2,4.6686165E-2,3.9565645E-2,-2.7341954E-2,-4.8639387E-2,2.5410688E-2,4.3953773E-2,3.4178834E-2,-4.9442727E-2,-3.1619295E-2,2.9001167E-2,4.3760166E-2],"categories":[],"categories_nodes":[],"categories_segments":[],"categories_sizes":[],"default_left":[0,0,0,0,0,0,0,0,0,0,0,0,0,0,0,0,0,0,0,0,0,0,0,0,0,0,0,0,0,0,0,0,0,0,0,0,0,0,0,0,0,0,0,0,0,0,0,0,0,0,0,0,0,0,0,0,0,0,0,0,0,0,0,0,0,0,0,0,0],"id":13,"left_children":[1,3,5,7,9,11,13,15,17,19,21,-1,23,25,27,-1,29,-1,-1,31,-1,33,-1,-1,-1,35,37,39,41,-1,43,45,-1,-1,-1,47,49,-1,-1,-1,51,53,-1,55,-1,57,-1,59,61,-1,63,65,-1,-1,67,-1,-1,-1,-1,-1,-1,-1,-1,-1,-1,-1,-1,-1,-1],"loss_changes":[4.523169E3,2.1855664E2,4.2427612E2,9.548168E1,1.6256592E1,3.1074623E1,5.9777832E1,7.008145E1,5.287514E-1,1.1237793E0,4.534208E1,0E0,1.4743958E0,3.4927002E1,9.17039E1,0E0,3.2874733E1,0E0,0E0,4.002411E1,0E0,1.7199583E0,0E0,0E0,0E0,2.4979004E1,1.8546284E1,1.3336731E1,2.3830643E1,0E0,3.640335E0,2.310913E0,0E0,0E0,0E0,6.920035E1,1.5782593E1,0E0,0E0,0E0,3.9068985E-1,1.978115E1,0E0,1.4189072E0,0E0,3.7526566E1,0E0,3.5053528E1,5.0879837E1,0E0,3.2391357E0,3.1378365E-1,0E0,0E0,3.3508759E0,0E0,0E0,0E0,0E0,0E0,0E0,0E0,0E0,0E0,0E0,0E0,0E0,0E0,0E0],"parents":[2147483647,0,0,1,1,2,2,3,3,4,4,5,5,6,6,7,7,8,8,9,9,10,10,12,12,13,13,14,14,16,16,19,19,21,21,25,25,26,26,27,27,28,28,30,30,31,31,35,35,36,36,40,40,41,41,43,43,45,45,47,47,48,48,50,50,51,51,54,54],"right_children":[2,4,6,8,10,12,14,16,18,20,22,-1,24,26,28,-1,30,-1,-1,32,-1,34,-1,-1,-1,36,38,40,42,-1,44,46,-1,-1,-1,48,50,-1,-1,-1,52,54,-1,56,-1,58,-1,60,62,-1,64,66,-1,-1,68,-1,-1,-1,-1,-1,-1,-1,-1,-1,-1,-1,-1,-1,-1],"split_conditions":[4.479772E-3,3.563706E0,5.25E3,7.2154427E0,2.8551197E5,3E0,9.893333E-1,2.2288E1,9.480519E-1,2E0,5E0,2.9489927E-2,2.1888087E0,4.6E1,2.65E4,-4.440962E-2,3.7801996E4,-4.578152E-2,-2.793623E-2,1.0120033E0,-4.541295E-2,1.8819998E-1,-4.5324378E-2,-2.2335354E-2,-4.520739E-2,1.0855393E0,3.0208714E-3,3.0013914E4,4.5E1,-4.591157E-2,4.805928E0,9.8920894E-1,4.7178615E-2,1.6143052E-2,4.6532083E-2,9.9056524E-1,-8.9579165E-1,-4.3527674E-2,4.329034E-2,1.2641215E-2,6.856733E2,4.0778685E0,-3.702967E-2,8.85E4,7.2209067E-3,6.353572E-2,-4.5267094E-2,9.920922E-1,1.0315836E1,-6.38983E-3,9.959747E-1,-6.644089E-2,-6.0043007E-2,-2.111816E-2,9.1968846E-1,4.529459E-2,3.1792555E-2,-4.4814542E-2,4.6686165E-2,3.9565645E-2,-2.7341954E-2,-4.8639387E-2,2.5410688E-2,4.3953773E-2,3.4178834E-2,-4.9442727E-2,-3.1619295E-2,2.9001167E-2,4.3760166E-2],"split_indices":[16,14,0,13,7,29,24,27,19,2,14,0,13,13,15,0,7,0,0,2,0,5,0,0,0,29,24,22,27,0,2,29,0,0,0,5,19,0,0,0,8,27,0,15,0,29,0,4,1,0,4,10,0,0,10,0,0,0,0,0,0,0,0,0,0,0,0,0,0],"split_type":[0,0,0,0,0,0,0,0,0,0,0,0,0,0,0,0,0,0,0,0,0,0,0,0,0,0,0,0,0,0,0,0,0,0,0,0,0,0,0,0,0,0,0,0,0,0,0,0,0,0,0,0,0,0,0,0,0,0,0,0,0,0,0,0,0,0,0,0,0],"sum_hessian":[2.8425347E3,1.3170111E3,1.5255237E3,1.001552E2,1.216856E3,6.795267E1,1.4575709E3,7.13252E1,2.8829994E1,1.1869144E3,2.994153E1,5.526901E0,6.242577E1,1.3570312E3,1.00539764E2,1.2233197E1,5.9092003E1,2.562895E1,3.2010458E0,3.5726245E2,8.296519E2,8.542599E0,2.1398932E1,3.5188994E0,5.8906868E1,1.3471268E3,9.904411E0,2.0680326E1,7.9859436E1,4.1712713E0,5.4920734E1,3.5299362E2,4.2688465E0,3.160042E0,5.382557E0,3.7438922E2,9.7273755E2,6.7524495E0,3.1519618E0,3.4928675E0,1.7187458E1,7.558212E1,4.277314E0,5.1838127E1,3.0826046E0,5.8580288E1,2.9441333E2,3.4065213E2,3.3737083E1,5.590319E0,9.671473E2,1.1191661E1,5.995798E0,5.1703014E0,7.041182E1,3.968243E1,1.2155697E1,5.4335087E1,4.245202E0,3.335722E2,7.0799356E0,1.4689481E1,1.9047602E1,9.306254E2,3.6521816E1,7.9635377E0,3.228123E0,2.320532E1,4.72065E1],"tree_param":{"num_deleted":"0","num_feature":"30","num_nodes":"69","size_leaf_vector":"1"}},{"base_weights":[3.5755187E-3,-1.3235108E0,1.1537163E0,1.6789275E-1,-1.4522575E0,-1.2771537E0,1.2606223E0,-4.557908E-2,6.9626445E-1,-1.4685422E0,-7.353147E-1,-1.3783505E0,1.4644484E-2,-2.6928872E-1,1.3411369E0,1.1125464E0,-4.501391E-2,-4.462711E-2,-1.3929313E0,3.989252E-2,-4.4635735E-2,-7.391316E-1,-4.52321E-2,-4.5951754E-2,6.43465E-1,1.3651274E0,-4.6461813E-2,-4.4209704E-2,1.2676641E0,4.691445E-2,-4.4452693E-2,-4.4409174E-2,2.8848853E-2,-4.6082795E-2,1.158283E0,1.407164E0,8.2808733E-1,7.020486E-1,1.4067726E0,1.3191613E0,-1.12740025E-2,1.449549E0,1.1793771E0,-5.112267E-2,1.0185529E0,-4.2114876E-2,4.300775E-2,3.343775E-2,4.5220062E-2,2.8045143E-3,4.3587565E-2,3.3730146E-2,4.3933116E-2,-1.8766994E-2,4.038755E-2,3.9463636E-2,-4.3943278E-3],"categories":[],"categories_nodes":[],"categories_segments":[],"categories_sizes":[],"default_left":[0,0,0,0,0,0,0,0,0,0,0,0,0,0,0,0,0,0,0,0,0,0,0,0,0,0,0,0,0,0,0,0,0,0,0,0,0,0,0,0,0,0,0,0,0,0,0,0,0,0,0,0,0,0,0,0,0],"id":14,"left_children":[1,3,5,7,9,11,13,-1,15,17,19,21,-1,23,25,27,-1,-1,29,-1,-1,31,-1,-1,33,35,-1,-1,37,-1,-1,-1,-1,-1,39,41,43,45,47,49,-1,51,53,-1,55,-1,-1,-1,-1,-1,-1,-1,-1,-1,-1,-1,-1],"loss_changes":[4.23827E3,2.4769116E2,3.867472E2,9.1375E1,1.3528076E1,1.135302E1,1.7567798E2,0E0,7.1592186E1,1.1740723E0,4.1699303E1,4.5731354E0,0E0,8.230715E1,9.405493E1,2.6560776E1,0E0,0E0,6.2178802E1,0E0,0E0,1.3201363E1,0E0,0E0,4.657837E1,2.9973877E1,0E0,0E0,4.5813904E0,0E0,0E0,0E0,0E0,0E0,8.429611E0,1.1586182E1,4.7317802E1,1.963344E1,1.0286484E0,4.82666E0,0E0,4.6550293E0,5.925891E1,0E0,3.1662697E1,0E0,0E0,0E0,0E0,0E0,0E0,0E0,0E0,0E0,0E0,0E0,0E0],"parents":[2147483647,0,0,1,1,2,2,3,3,4,4,5,5,6,6,8,8,9,9,10,10,11,11,13,13,14,14,15,15,18,18,21,21,24,24,25,25,28,28,34,34,35,35,36,36,37,37,38,38,39,39,41,41,42,42,44,44],"right_children":[2,4,6,8,10,12,14,-1,16,18,20,22,-1,24,26,28,-1,-1,30,-1,-1,32,-1,-1,34,36,-1,-1,38,-1,-1,-1,-1,-1,40,42,44,46,48,50,-1,52,54,-1,56,-1,-1,-1,-1,-1,-1,-1,-1,-1,-1,-1,-1],"split_conditions":[4.479772E-3,3.563706E0,5.25E3,2.3031328E1,2.3874802E5,2.0121193E3,4.223423E0,-4.557908E-2,7.073215E0,7.009922E0,5E0,3.4722224E-2,1.4644484E-2,2.3537908E-1,1.2E1,3.0602498E4,-4.501391E-2,-4.462711E-2,8E0,3.989252E-2,-4.4635735E-2,3.2786883E-2,-4.52321E-2,-4.5951754E-2,3.682397E-1,2E0,-4.6461813E-2,-4.4209704E-2,6.7226815E-1,4.691445E-2,-4.4452693E-2,-4.4409174E-2,2.8848853E-2,-4.6082795E-2,6.666667E-1,1.3E1,5.1062603E0,3.153552E5,7.24875E4,5.294687E-2,-1.12740025E-2,1.01132295E4,6.0161543E0,-5.112267E-2,7.626974E4,-4.2114876E-2,4.300775E-2,3.343775E-2,4.5220062E-2,2.8045143E-3,4.3587565E-2,3.3730146E-2,4.3933116E-2,-1.8766994E-2,4.038755E-2,3.9463636E-2,-4.3943278E-3],"split_indices":[16,14,0,27,6,8,3,0,13,3,14,26,0,26,3,6,0,0,3,0,0,26,0,0,10,28,0,0,18,0,0,0,0,0,26,13,3,22,21,19,0,0,3,0,22,0,0,0,0,0,0,0,0,0,0,0,0],"split_type":[0,0,0,0,0,0,0,0,0,0,0,0,0,0,0,0,0,0,0,0,0,0,0,0,0,0,0,0,0,0,0,0,0,0,0,0,0,0,0,0,0,0,0,0,0,0,0,0,0,0,0,0,0,0,0,0,0],"sum_hessian":[2.7765715E3,1.2890748E3,1.4874968E3,1.0237332E2,1.1867014E3,6.2576504E1,1.4249203E3,2.4324278E1,7.804904E1,1.1601063E3,2.6595163E1,5.9258076E1,3.3184261E0,7.116635E1,1.353754E3,6.569471E1,1.2354333E1,9.243059E2,2.358004E2,7.0472126E0,1.954795E1,1.0218547E1,4.9039528E1,2.9880352E1,4.1285995E1,1.3426948E3,1.1059146E1,3.6327558E0,6.2061954E1,6.795928E0,2.2900447E2,7.1669993E0,3.0515475E0,7.813551E0,3.3472446E1,1.2449023E3,9.7792465E1,1.2511945E1,4.9550007E1,3.0367065E1,3.1053793E0,1.048778E3,1.9612439E2,6.748862E0,9.104361E1,3.1668894E0,9.345056E0,1.3251398E1,3.629861E1,3.0781534E0,2.7288912E1,4.6540802E1,1.0022372E3,1.652399E1,1.796004E2,7.26118E1,1.8431803E1],"tree_param":{"num_deleted":"0","num_feature":"30","num_nodes":"57","size_leaf_vector":"1"}},{"base_weights":[7.0769796E-3,-1.2999448E0,1.1403509E0,2.411315E-1,-1.4275638E0,-1.3259469E0,1.2454509E0,-4.4499934E-2,8.1142473E-1,-1.4456828E0,-6.243588E-1,2.0147957E-2,-4.39519E-2,-1.9225602E-1,1.327454E0,1.1411128E0,-1.2976334E0,-4.4011053E-2,-1.3629452E0,1.1357162E0,-4.3931913E-2,-4.511846E-2,6.838407E-1,1.3508348E0,-4.582415E-2,1.3564179E0,-4.1223586E-2,-4.391791E-2,-2.6427245E-2,4.6056956E-2,-4.406782E-2,1.4474131E-2,4.47845E-2,-4.589707E-2,1.1629128E0,8.1968653E-1,1.379339E0,1.4173487E0,5.995854E-3,4.807868E-1,4.475531E-2,-1.5637484E0,1.1568154E0,7.949403E-1,1.399007E0,4.46229E-2,3.4935173E-2,-4.9729656E-2,3.75567E-2,-5.3591963E-2,-3.3865396E-2,-3.5706095E-2,4.1751087E-2,-3.1323597E-2,3.864854E-2,3.6845826E-2,4.303829E-2],"categories":[],"categories_nodes":[],"categories_segments":[],"categories_sizes":[],"default_left":[0,0,0,0,0,0,0,0,0,0,0,0,0,0,0,0,0,0,0,0,0,0,0,0,0,0,0,0,0,0,0,0,0,0,0,0,0,0,0,0,0,0,0,0,0,0,0,0,0,0,0,0,0,0,0,0,0],"id":15,"left_children":[1,3,5,7,9,11,13,-1,15,17,19,-1,-1,21,23,25,27,-1,29,31,-1,-1,33,35,-1,37,-1,-1,-1,-1,-1,-1,-1,-1,39,41,43,45,-1,47,-1,49,51,53,55,-1,-1,-1,-1,-1,-1,-1,-1,-1,-1,-1,-1],"loss_changes":[4.0540823E3,2.5012695E2,3.8015125E2,9.567562E1,1.6786865E1,1.6831253E1,1.6591968E2,0E0,5.1013912E1,1.5449219E0,3.8928886E1,0E0,0E0,8.740369E1,8.899121E1,3.450627E1,3.2250977E-1,0E0,7.326776E1,1.7087975E0,0E0,0E0,4.842493E1,1.964624E1,0E0,3.9301224E0,0E0,0E0,0E0,0E0,0E0,0E0,0E0,0E0,8.14983E0,5.4487946E1,1.4060791E1,5.44014E-1,0E0,2.0702286E1,0E0,3.189602E-1,3.2904274E1,3.7507343E1,6.9226074E0,0E0,0E0,0E0,0E0,0E0,0E0,0E0,0E0,0E0,0E0,0E0,0E0],"parents":[2147483647,0,0,1,1,2,2,3,3,4,4,5,5,6,6,8,8,9,9,10,10,13,13,14,14,15,15,16,16,18,18,19,19,22,22,23,23,25,25,34,34,35,35,36,36,37,37,39,39,41,41,42,42,43,43,44,44],"right_children":[2,4,6,8,10,12,14,-1,16,18,20,-1,-1,22,24,26,28,-1,30,32,-1,-1,34,36,-1,38,-1,-1,-1,-1,-1,-1,-1,-1,40,42,44,46,-1,48,-1,50,52,54,56,-1,-1,-1,-1,-1,-1,-1,-1,-1,-1,-1,-1],"split_conditions":[4.479772E-3,3.563706E0,5.25E3,4.2228285E4,2.3874802E5,3E0,4.223423E0,-4.4499934E-2,7.073215E0,7.009922E0,5E0,2.0147957E-2,-4.39519E-2,2.2033899E-1,1.2E1,1.254049E3,3.6234626E-1,-4.4011053E-2,7.96458E0,1.8819998E-1,-4.3931913E-2,-4.511846E-2,2.0976727E-1,1.14E2,-4.582415E-2,7.787234E-1,-4.1223586E-2,-4.391791E-2,-2.6427245E-2,4.6056956E-2,-4.406782E-2,1.4474131E-2,4.47845E-2,-4.589707E-2,9.270526E4,6.0161543E0,2.0476124E0,8.85E4,5.995854E-3,5.4624623E-1,4.475531E-2,5.8E1,4.367777E-2,3.521354E4,6.0161543E0,4.46229E-2,3.4935173E-2,-4.9729656E-2,3.75567E-2,-5.3591963E-2,-3.3865396E-2,-3.5706095E-2,4.1751087E-2,-3.1323597E-2,3.864854E-2,3.6845826E-2,4.303829E-2],"split_indices":[16,14,0,6,6,29,3,0,13,3,14,0,0,26,3,8,19,0,3,5,0,0,10,8,0,4,0,0,0,0,0,0,0,0,6,3,27,15,0,24,0,17,10,0,3,0,0,0,0,0,0,0,0,0,0,0,0],"split_type":[0,0,0,0,0,0,0,0,0,0,0,0,0,0,0,0,0,0,0,0,0,0,0,0,0,0,0,0,0,0,0,0,0,0,0,0,0,0,0,0,0,0,0,0,0,0,0,0,0,0,0,0,0,0,0,0,0],"sum_hessian":[2.736811E3,1.2709279E3,1.465883E3,9.713169E1,1.1737963E3,5.9828175E1,1.4060548E3,2.4055824E1,7.307587E1,1.1477015E3,2.6094727E1,3.823643E0,5.600453E1,7.579726E1,1.3302576E3,6.327762E1,9.798252E0,9.099774E2,2.3772409E2,8.38079E0,1.7713938E1,3.03699E1,4.5427357E1,1.3195387E3,1.0718902E1,5.8367188E1,4.9104295E0,6.652334E0,3.145918E0,8.305676E0,2.2941843E2,3.1442125E0,5.236577E0,8.005712E0,3.7421646E1,6.753667E1,1.2520021E3,5.5342564E1,3.0246248E0,1.2353514E1,2.5068132E1,8.287216E0,5.924945E1,4.10648E1,1.2109373E3,4.264009E1,1.2702474E1,3.2091541E0,9.14436E0,5.123511E0,3.1637053E0,5.3144555E0,5.3934998E1,8.619436E0,3.2445366E1,2.099597E2,1.00097754E3],"tree_param":{"num_deleted":"0","num_feature":"30","num_nodes":"57","size_leaf_vector":"1"}},{"base_weights":[-1.4939033E-2,-1.14747E0,5.346647E-1,-1.3998735E0,5.087604E-3,-8.9639246E-1,8.9964986E-1,-4.3458305E-2,-1.036641E0,-1.3504176E0,9.9699295E-1,-1.3922838E0,-2.4392289E-1,1.0569615E0,-4.368968E-2,3.4397107E-1,-4.4119023E-2,-1.4335442E0,-6.7029345E-1,-4.4179317E-2,1.1590106E0,-1.4263704E0,-4.72458E-3,4.485229E-1,-1.4447261E0,1.1622667E0,-6.0690064E-3,-4.5303628E-2,1.2429878E0,-2.3495836E-2,-4.4137996E-2,-4.3591395E-2,1.2298089E-2,1.2765188E0,-3.920933E-2,-1.2645957E0,-4.350913E-2,-1.1999891E0,8.3993787E-1,-4.4272088E-2,-2.4942141E-2,7.3194957E-1,1.2721053E0,-9.156465E-1,7.22718E-1,4.6652354E-2,2.55805E-3,1.3339373E0,1.4316887E-2,-4.3369703E-2,-1.352033E-2,-4.6405856E-2,1.6742513E-2,1.2472281E0,-4.307833E-2,-4.7497623E-2,9.068355E-1,8.7321055E-1,1.3394097E0,-1.3539822E0,6.018854E-1,8.8388276E-1,-4.793186E-2,4.1933894E-2,2.2809818E-2,-9.691294E-3,4.032167E-2,3.0803643E-2,-2.4375208E-2,3.179476E-2,-4.7807656E-2,3.24693E-2,4.1484542E-2,-4.5185182E-2,1.441696E-3,-3.4003336E-2,3.6915746E-2,-1.3858763E-2,3.1617787E-2],"categories":[],"categories_nodes":[],"categories_segments":[],"categories_sizes":[],"default_left":[0,0,0,0,0,0,0,0,0,0,0,0,0,0,0,0,0,0,0,0,0,0,0,0,0,0,0,0,0,0,0,0,0,0,0,0,0,0,0,0,0,0,0,0,0,0,0,0,0,0,0,0,0,0,0,0,0,0,0,0,0,0,0,0,0,0,0,0,0,0,0,0,0,0,0,0,0,0,0],"id":16,"left_children":[1,3,5,7,9,11,13,-1,15,17,19,21,23,25,-1,27,-1,29,31,-1,33,35,-1,37,39,41,43,-1,45,-1,-1,-1,-1,47,-1,49,-1,51,53,-1,-1,55,57,59,61,-1,-1,63,-1,-1,-1,-1,-1,65,-1,-1,67,69,71,73,75,77,-1,-1,-1,-1,-1,-1,-1,-1,-1,-1,-1,-1,-1,-1,-1,-1,-1],"loss_changes":[1.6645973E3,2.5433679E2,9.404558E2,1.2292236E1,2.1120164E2,1.18179504E2,5.3182117E2,0E0,5.1335213E1,3.4443817E0,3.6456192E1,8.564087E0,1.3170473E2,1.50672E2,0E0,3.4251106E1,0E0,1.1042938E0,6.5431046E0,0E0,2.4872803E1,3.276062E-1,0E0,6.482326E1,7.4850464E-1,5.7549805E1,8.045173E1,0E0,4.832121E0,0E0,0E0,0E0,0E0,3.4947052E0,0E0,3.7779846E0,0E0,1.192391E1,7.543949E1,0E0,0E0,1.01006744E2,2.5828003E1,3.6099697E1,2.5239124E1,0E0,0E0,2.4562073E0,0E0,0E0,0E0,0E0,0E0,1.0632935E1,0E0,0E0,4.792604E1,6.511871E1,8.906006E0,9.116241E0,1.3379471E1,1.4533787E1,0E0,0E0,0E0,0E0,0E0,0E0,0E0,0E0,0E0,0E0,0E0,0E0,0E0,0E0,0E0,0E0,0E0],"parents":[2147483647,0,0,1,1,2,2,3,3,4,4,5,5,6,6,8,8,9,9,10,10,11,11,12,12,13,13,15,15,17,17,18,18,20,20,21,21,23,23,24,24,25,25,26,26,28,28,33,33,35,35,37,37,38,38,41,41,42,42,43,43,44,44,47,47,53,53,56,56,57,57,58,58,59,59,60,60,61,61],"right_children":[2,4,6,8,10,12,14,-1,16,18,20,22,24,26,-1,28,-1,30,32,-1,34,36,-1,38,40,42,44,-1,46,-1,-1,-1,-1,48,-1,50,-1,52,54,-1,-1,56,58,60,62,-1,-1,64,-1,-1,-1,-1,-1,66,-1,-1,68,70,72,74,76,78,-1,-1,-1,-1,-1,-1,-1,-1,-1,-1,-1,-1,-1,-1,-1,-1,-1],"split_conditions":[5.1062603E0,1.0085463E5,1.01132295E4,4.049532E-1,2.2580644E-1,5.25E3,1.2E1,-4.3458305E-2,2.349815E4,4.106959E0,9.580495E2,2.0121193E3,9.825488E-1,2E0,-4.368968E-2,3.0208714E-3,-4.4119023E-2,-3.46181E-1,1.4285715E-1,-4.4179317E-2,1.9767468E0,-4.7723654E-1,-4.72458E-3,7.009922E0,9.151421E4,1E-1,7.073215E0,-4.5303628E-2,3.1980088E-1,-2.3495836E-2,-4.4137996E-2,-4.3591395E-2,1.2298089E-2,4.1E1,-3.920933E-2,-5.488722E-1,-4.350913E-2,-7.6334186E-2,1.2E1,-4.4272088E-2,-2.4942141E-2,3.3594723E4,3.07E4,5.186971E-3,3.125352E-1,4.6652354E-2,2.55805E-3,9.893333E-1,1.4316887E-2,-4.3369703E-2,-1.352033E-2,-4.6405856E-2,1.6742513E-2,2.1601862E2,-4.307833E-2,-4.7497623E-2,9.802803E-1,9.4426614E-1,5.1029648E2,3.6E5,3.283562E0,3.051123E0,-4.793186E-2,4.1933894E-2,2.2809818E-2,-9.691294E-3,4.032167E-2,3.0803643E-2,-2.4375208E-2,3.179476E-2,-4.7807656E-2,3.24693E-2,4.1484542E-2,-4.5185182E-2,1.441696E-3,-3.4003336E-2,3.6915746E-2,-1.3858763E-2,3.1617787E-2],"split_indices":[3,0,0,10,26,0,3,0,0,10,8,8,5,28,0,24,0,10,26,0,28,19,0,3,6,26,13,0,28,0,0,0,0,27,0,19,0,10,3,0,0,7,0,23,24,0,0,24,0,0,0,0,0,8,0,0,24,5,8,0,13,27,0,0,0,0,0,0,0,0,0,0,0,0,0,0,0,0,0],"split_type":[0,0,0,0,0,0,0,0,0,0,0,0,0,0,0,0,0,0,0,0,0,0,0,0,0,0,0,0,0,0,0,0,0,0,0,0,0,0,0,0,0,0,0,0,0,0,0,0,0,0,0,0,0,0,0,0,0,0,0,0,0,0,0,0,0,0,0,0,0,0,0,0,0,0,0,0,0,0,0],"sum_hessian":[2.6739988E3,8.7369934E2,1.8002994E3,7.167914E2,1.5690794E2,3.65765E2,1.4345344E3,6.314875E2,8.5303894E1,6.624405E1,9.0663895E1,2.0766692E2,1.580981E2,1.3448354E3,8.9699E1,2.03517E1,6.4952194E1,5.8799603E1,7.4444427E0,5.493915E0,8.516998E1,2.0199434E2,5.6725698E0,1.00261475E2,5.7836628E1,1.223699E3,1.2113651E2,6.587247E0,1.3764453E1,3.488226E0,5.531138E1,4.3502426E0,3.0942001E0,8.1380844E1,3.7891383E0,2.726522E1,1.7472913E2,1.9149208E1,8.111227E1,5.4764046E1,3.0725827E0,2.4917557E2,9.745234E2,5.393429E1,6.720222E1,1.074672E1,3.017733E0,7.574738E1,5.633459E0,2.2139645E1,5.125576E0,1.605116E1,3.0980458E0,6.8875496E1,1.2236773E1,1.7403576E1,2.3177199E2,1.4110655E2,8.334169E2,4.1906395E1,1.2027897E1,6.293605E1,4.2661686E0,6.787313E1,7.8742485E0,3.9268403E0,6.4948654E1,2.1674863E2,1.5023366E1,1.3127322E2,9.833324E0,1.2109428E2,7.123226E2,3.786055E1,4.045843E0,3.134868E0,8.893029E0,6.974589E0,5.596146E1],"tree_param":{"num_deleted":"0","num_feature":"30","num_nodes":"79","size_leaf_vector":"1"}},{"base_weights":[3.680474E-3,-1.2606921E0,1.1020123E0,-1.2925452E0,1.1549186E0,-1.1911348E0,1.2020189E0,-1.3443377E0,-2.8155577E-1,-0E0,4.332197E-2,-1.2957999E0,1.5778238E-2,-2.4631925E-1,1.281909E0,9.4883525E-1,-1.3616195E0,1.279526E0,-1.3487623E0,-5.0486857E-1,-4.3246336E-2,-4.372166E-2,5.5370945E-1,1.3041501E0,-4.435905E-2,1.225135E-2,4.189601E-2,-4.2943552E-2,-1.1129243E0,1.8799955E-2,4.123866E-2,-4.3543793E-2,-8.16194E-3,-4.2390827E-2,3.0141301E-2,-3.9686307E-1,1.3750169E0,1.0044922E0,1.3707747E0,4.518374E-2,-1.2624264E0,6.094791E-1,-4.7228537E-2,2.3911644E-2,4.363145E-2,-4.4898894E-1,1.3227062E0,9.287365E-1,1.3837153E0,-4.0408663E-2,1.3137918E-2,-1.1772424E-2,3.6668982E-2,-4.6440423E-2,9.727327E-3,4.094421E-2,-1.5205062E-2,3.5520088E-2,-9.913495E-3,4.1944567E-2,3.395729E-2],"categories":[],"categories_nodes":[],"categories_segments":[],"categories_sizes":[],"default_left":[0,0,0,0,0,0,0,0,0,0,0,0,0,0,0,0,0,0,0,0,0,0,0,0,0,0,0,0,0,0,0,0,0,0,0,0,0,0,0,0,0,0,0,0,0,0,0,0,0,0,0,0,0,0,0,0,0,0,0,0,0],"id":17,"left_children":[1,3,5,7,9,11,13,15,17,-1,-1,19,-1,21,23,25,27,29,31,33,-1,-1,35,37,-1,-1,-1,-1,39,-1,-1,-1,-1,-1,-1,41,43,45,47,-1,49,51,-1,-1,-1,53,55,57,59,-1,-1,-1,-1,-1,-1,-1,-1,-1,-1,-1,-1],"loss_changes":[3.6770476E3,9.4869385E1,3.2510535E2,6.341455E1,5.37566E0,1.0788574E1,1.5725269E2,4.596582E1,9.9184395E1,0E0,0E0,6.1768875E0,0E0,6.896562E1,7.919287E1,1.8576612E0,1.9506592E1,1.2126503E0,3.7006683E0,1.2465359E1,0E0,0E0,3.355167E1,2.511499E1,0E0,0E0,0E0,0E0,9.892761E1,0E0,0E0,0E0,0E0,0E0,0E0,2.3713585E1,7.153015E-1,1.0786075E2,5.6120605E0,0E0,3.445819E1,6.7185597E0,0E0,0E0,0E0,3.573415E1,1.4877502E1,9.837227E0,3.2745361E0,0E0,0E0,0E0,0E0,0E0,0E0,0E0,0E0,0E0,0E0,0E0,0E0],"parents":[2147483647,0,0,1,1,2,2,3,3,4,4,5,5,6,6,7,7,8,8,11,11,13,13,14,14,15,15,16,16,17,17,18,18,19,19,22,22,23,23,28,28,35,35,36,36,37,37,38,38,40,40,41,41,45,45,46,46,47,47,48,48],"right_children":[2,4,6,8,10,12,14,16,18,-1,-1,20,-1,22,24,26,28,30,32,34,-1,-1,36,38,-1,-1,-1,-1,40,-1,-1,-1,-1,-1,-1,42,44,46,48,-1,50,52,-1,-1,-1,54,56,58,60,-1,-1,-1,-1,-1,-1,-1,-1,-1,-1,-1,-1],"split_conditions":[4.479772E-3,1.2211979E6,5.25E3,6.40233E-1,1.3972057E-1,2.0121193E3,4.223423E0,4.3737984E0,6.686205E-1,-0E0,4.332197E-2,-4.7723654E-1,1.5778238E-2,2.3537908E-1,1.2E1,3.3439487E-1,7.009922E0,1.74065E4,1.5029642E5,-5.6809324E-1,-4.3246336E-2,-4.372166E-2,1.6740372E5,6.0161543E0,-4.435905E-2,1.225135E-2,4.189601E-2,-4.2943552E-2,8E0,1.8799955E-2,4.123866E-2,-4.3543793E-2,-8.16194E-3,-4.2390827E-2,3.0141301E-2,1.9243438E4,1.3030033E5,8.6085086E4,2.0476124E0,4.518374E-2,2.8551197E5,3.0175526E0,-4.7228537E-2,2.3911644E-2,4.363145E-2,7.376406E4,1.36E2,2.0912439E5,9.893333E-1,-4.0408663E-2,1.3137918E-2,-1.1772424E-2,3.6668982E-2,-4.6440423E-2,9.727327E-3,4.094421E-2,-1.5205062E-2,3.5520088E-2,-9.913495E-3,4.1944567E-2,3.395729E-2],"split_indices":[16,15,0,26,11,8,3,9,26,0,0,19,0,26,3,26,3,0,21,19,0,0,15,3,0,0,0,0,3,0,0,0,0,0,0,7,7,15,27,0,7,2,0,0,0,21,9,22,24,0,0,0,0,0,0,0,0,0,0,0,0],"split_type":[0,0,0,0,0,0,0,0,0,0,0,0,0,0,0,0,0,0,0,0,0,0,0,0,0,0,0,0,0,0,0,0,0,0,0,0,0,0,0,0,0,0,0,0,0,0,0,0,0,0,0,0,0,0,0,0,0,0,0,0,0],"sum_hessian":[2.6476445E3,1.2307405E3,1.416904E3,1.2148094E3,1.593098E1,5.9123047E1,1.357781E3,1.1554827E3,5.9326828E1,3.199234E0,1.2731746E1,5.5804253E1,3.3187952E0,7.090345E1,1.2868776E3,8.559154E0,1.1469236E3,2.4043308E1,3.528352E1,8.859239E0,4.6945015E1,2.822292E1,4.268053E1,1.2766805E3,1.0196949E1,4.0656843E0,4.4934697E0,8.947926E2,2.5213095E2,3.2870884E0,2.075622E1,3.2094593E1,3.1889272E0,5.576855E0,3.282384E0,1.9750933E1,2.29296E1,2.3278609E2,1.0438944E3,1.3529982E1,2.3860097E2,1.062934E1,9.1215925E0,3.053953E0,1.9875647E1,4.1746864E1,1.9103922E2,3.0117481E1,1.013777E3,2.2737708E2,1.1223888E1,3.9857943E0,6.643546E0,1.7253271E1,2.4493593E1,1.8682024E2,4.2189865E0,2.5112064E1,5.0054154E0,9.5799884E2,5.577812E1],"tree_param":{"num_deleted":"0","num_feature":"30","num_nodes":"61","size_leaf_vector":"1"}},{"base_weights":[-3.182631E-3,-1.2440445E0,1.0829247E0,1.8367216E-1,-1.3738234E0,-1.1665671E0,1.1869547E0,-4.2291254E-2,7.0074004E-1,-1.3910472E0,-6.0190904E-1,3.1532533E-2,-1.3622752E0,2.56252E-1,1.2879755E0,1.0807458E0,-4.0314417E-2,-4.2362917E-2,-1.3106105E0,1.0867468E0,-4.247306E-2,-4.214972E-2,-2.3431033E-2,-1.2764271E0,9.181879E-1,1.3125705E0,-4.3671835E-2,-4.3429296E-2,1.2661946E0,4.402466E-2,-4.2335976E-2,4.370268E-2,1.33789E-2,-1.47215E0,5.727186E-3,-8.713845E-1,1.1819581E0,7.511727E-1,1.331658E0,1.3200488E0,5.5247718E-3,-1.3732264E0,-5.181153E-2,3.2426447E-2,-4.677217E-2,-1.9988477E-2,1.2619872E0,-7.4736434E-1,1.3615469E0,6.441615E-1,1.3435812E0,2.9183805E-2,4.314037E-2,-4.2707387E-2,-2.7978987E-2,1.0797162E-2,3.9023966E-2,-6.103691E-2,1.8143311E-2,4.2261608E-2,2.78548E-2,-5.375129E-2,3.4263775E-2,4.102549E-2,2.9177804E-2],"categories":[],"categories_nodes":[],"categories_segments":[],"categories_sizes":[],"default_left":[0,0,0,0,0,0,0,0,0,0,0,0,0,0,0,0,0,0,0,0,0,0,0,0,0,0,0,0,0,0,0,0,0,0,0,0,0,0,0,0,0,0,0,0,0,0,0,0,0,0,0,0,0,0,0,0,0,0,0,0,0,0,0,0,0],"id":18,"left_children":[1,3,5,7,9,11,13,-1,15,17,19,-1,21,23,25,27,-1,-1,29,31,-1,-1,-1,33,35,37,-1,-1,39,-1,-1,-1,-1,41,-1,43,45,47,49,51,-1,53,-1,-1,-1,-1,55,57,59,61,63,-1,-1,-1,-1,-1,-1,-1,-1,-1,-1,-1,-1,-1,-1],"loss_changes":[3.5515854E3,2.2805615E2,3.289823E2,8.4491005E1,1.47092285E1,2.7135681E1,1.2610034E2,0E0,6.0343494E1,1.4099121E0,3.4427925E1,0E0,1.0910416E0,1.3373656E2,8.193396E1,3.0859627E1,0E0,0E0,6.478613E1,1.6698217E0,0E0,0E0,0E0,1.1566772E1,4.361267E1,1.2559814E1,0E0,0E0,3.3845062E0,0E0,0E0,0E0,0E0,3.3855438E-1,0E0,1.6113533E1,1.2031105E1,3.664869E1,9.232422E0,1.9981613E0,0E0,2.101326E-1,0E0,0E0,0E0,0E0,2.4871368E0,2.0389687E1,2.162056E-1,2.4554947E1,9.765137E0,0E0,0E0,0E0,0E0,0E0,0E0,0E0,0E0,0E0,0E0,0E0,0E0,0E0,0E0],"parents":[2147483647,0,0,1,1,2,2,3,3,4,4,5,5,6,6,8,8,9,9,10,10,12,12,13,13,14,14,15,15,18,18,19,19,23,23,24,24,25,25,28,28,33,33,35,35,36,36,37,37,38,38,39,39,41,41,46,46,47,47,48,48,49,49,50,50],"right_children":[2,4,6,8,10,12,14,-1,16,18,20,-1,22,24,26,28,-1,-1,30,32,-1,-1,-1,34,36,38,-1,-1,40,-1,-1,-1,-1,42,-1,44,46,48,50,52,-1,54,-1,-1,-1,-1,56,58,60,62,64,-1,-1,-1,-1,-1,-1,-1,-1,-1,-1,-1,-1,-1,-1],"split_conditions":[4.479772E-3,3.563706E0,5.25E3,2.3031328E1,2.3874802E5,3E0,5.1062603E0,-4.2291254E-2,7.2154427E0,7.009922E0,5E0,3.1532533E-2,1.7855955E4,2.0731539E-1,1.2E1,3.7801996E4,-4.0314417E-2,-4.2362917E-2,7.96458E0,8.394587E-1,-4.247306E-2,-4.214972E-2,-2.3431033E-2,3.0929972E5,2.8463729E-2,2.0476124E0,-4.3671835E-2,-4.3429296E-2,4.805928E0,4.402466E-2,-4.2335976E-2,4.370268E-2,1.33789E-2,4.947763E0,5.727186E-3,3E0,2.218E0,3.879784E-1,-8.503429E-1,5.1062603E0,5.5247718E-3,1.826923E-1,-5.181153E-2,3.2426447E-2,-4.677217E-2,-1.9988477E-2,2.6666668E-1,3.07E4,7.784854E-1,7.009922E0,9.893333E-1,2.9183805E-2,4.314037E-2,-4.2707387E-2,-2.7978987E-2,1.0797162E-2,3.9023966E-2,-6.103691E-2,1.8143311E-2,4.2261608E-2,2.78548E-2,-5.375129E-2,3.4263775E-2,4.102549E-2,2.9177804E-2],"split_indices":[16,14,0,27,6,29,3,0,13,3,14,0,15,26,3,7,0,0,3,29,0,0,0,0,10,27,0,0,2,0,0,0,0,3,0,9,27,10,19,3,0,26,0,0,0,0,18,0,26,3,24,0,0,0,0,0,0,0,0,0,0,0,0,0,0],"split_type":[0,0,0,0,0,0,0,0,0,0,0,0,0,0,0,0,0,0,0,0,0,0,0,0,0,0,0,0,0,0,0,0,0,0,0,0,0,0,0,0,0,0,0,0,0,0,0,0,0,0,0,0,0,0,0,0,0,0,0,0,0,0,0,0,0],"sum_hessian":[2.6350637E3,1.2299458E3,1.4051178E3,1.0241797E2,1.1275278E3,6.2021202E1,1.3430966E3,2.500311E1,7.7414856E1,1.102713E3,2.4814829E1,4.9526463E0,5.7068558E1,1.316403E2,1.2114563E3,6.536248E1,1.2052378E1,8.7169556E2,2.3101747E2,8.01933E0,1.67955E1,5.2869408E1,4.1991487E0,3.963155E1,9.200875E1,1.200781E3,1.067532E1,4.3831553E0,6.0979324E1,7.990115E0,2.2302736E2,4.9041276E0,3.1152027E0,3.5027206E1,4.604344E0,1.1741051E1,8.02677E1,3.9789337E1,1.1609917E3,5.7979214E1,3.000112E0,2.597694E1,9.050266E0,3.0056806E0,8.73537E0,3.2490933E0,7.701861E1,1.1462164E1,2.8327173E1,2.0028385E1,1.1409633E3,1.5150963E1,4.282825E1,2.2908743E1,3.068198E0,3.3256638E0,7.369295E1,5.8841295E0,5.578034E0,2.5133152E1,3.1940215E0,3.3212657E0,1.6707119E1,1.071307E3,6.965626E1],"tree_param":{"num_deleted":"0","num_feature":"30","num_nodes":"65","size_leaf_vector":"1"}},{"base_weights":[-1.6356476E-3,-1.2366968E0,1.0561321E0,1.4187215E-1,-1.3553216E0,-8.9384985E-1,1.1585978E0,-4.23603E-2,6.6244495E-1,-1.3726664E0,-5.369055E-1,9.989283E-1,-1.3526123E0,1.2270159E0,3.8902903E-1,1.0214539E0,-1.2545203E0,-1.3184501E0,-4.1884832E-2,1.2430958E0,-4.1874602E-2,-8.9419475E-3,4.3664902E-2,-4.2116504E-2,-1.7812898E-2,8.7668884E-1,1.3103983E0,-4.6569005E-2,5.946275E-1,1.1515944E0,-3.737199E-2,-4.2205945E-2,-2.3560092E-2,-1.3550842E0,4.310747E-2,4.3812893E-2,2.7525043E-2,1.0575857E0,-1.1906935E-1,4.0966663E-1,1.3197067E0,7.7764356E-1,-4.654936E-2,-2.2832299E-2,1.2631775E0,-1.158074E0,-4.17768E-2,5.679553E-1,1.267574E0,1.1736687E0,-1.2024809E0,4.215868E-2,-4.1979834E-2,1.3275152E0,5.302803E-1,-4.7180854E-2,8.9909273E-1,3.9589066E-2,9.6212365E-3,-4.0737454E-2,4.2242967E-2,2.9038694E-2,-2.7126031E-2,4.2922404E-2,3.1845335E-2,4.2268734E-2,1.5399661E-2,-4.8756883E-2,2.2076257E-2,4.0653788E-2,3.612776E-2,4.1765396E-2,-1.7800154E-2,1.4506047E-2,3.8081396E-2],"categories":[],"categories_nodes":[],"categories_segments":[],"categories_sizes":[],"default_left":[0,0,0,0,0,0,0,0,0,0,0,0,0,0,0,0,0,0,0,0,0,0,0,0,0,0,0,0,0,0,0,0,0,0,0,0,0,0,0,0,0,0,0,0,0,0,0,0,0,0,0,0,0,0,0,0,0,0,0,0,0,0,0,0,0,0,0,0,0,0,0,0,0,0,0],"id":19,"left_children":[1,3,5,7,9,11,13,-1,15,17,19,21,23,25,27,29,31,33,-1,35,-1,-1,-1,-1,-1,37,39,-1,41,43,-1,-1,-1,45,-1,-1,-1,47,49,51,53,55,-1,-1,57,59,-1,61,63,65,67,-1,-1,69,71,-1,73,-1,-1,-1,-1,-1,-1,-1,-1,-1,-1,-1,-1,-1,-1,-1,-1,-1,-1],"loss_changes":[3.3572593E3,1.9402441E2,2.7670728E2,7.602405E1,1.523291E1,6.018411E1,6.903992E1,0E0,4.8622032E1,9.058838E-1,3.526265E1,8.152389E0,1.8845901E0,3.494348E1,4.296221E1,1.7682827E1,4.6520805E-1,3.3118164E1,0E0,1.5764809E-1,0E0,0E0,0E0,0E0,0E0,4.2024628E1,7.948242E0,0E0,3.8324738E1,1.2170898E1,0E0,0E0,0E0,1.9614868E0,0E0,0E0,0E0,2.0002396E1,5.0258453E1,1.8619083E1,5.6918945E0,2.57384E1,0E0,0E0,2.630951E0,2.7105278E1,0E0,3.510893E1,4.227829E0,2.2716198E0,1.6235353E1,0E0,0E0,2.831787E0,9.598039E0,0E0,1.29344635E1,0E0,0E0,0E0,0E0,0E0,0E0,0E0,0E0,0E0,0E0,0E0,0E0,0E0,0E0,0E0,0E0,0E0,0E0],"parents":[2147483647,0,0,1,1,2,2,3,3,4,4,5,5,6,6,8,8,9,9,10,10,11,11,12,12,13,13,14,14,15,15,16,16,17,17,19,19,25,25,26,26,28,28,29,29,33,33,37,37,38,38,39,39,40,40,41,41,44,44,45,45,47,47,48,48,49,49,50,50,53,53,54,54,56,56],"right_children":[2,4,6,8,10,12,14,-1,16,18,20,22,24,26,28,30,32,34,-1,36,-1,-1,-1,-1,-1,38,40,-1,42,44,-1,-1,-1,46,-1,-1,-1,48,50,52,54,56,-1,-1,58,60,-1,62,64,66,68,-1,-1,70,72,-1,74,-1,-1,-1,-1,-1,-1,-1,-1,-1,-1,-1,-1,-1,-1,-1,-1,-1,-1],"split_conditions":[4.479772E-3,3.563706E0,8.612685E0,4.2228285E4,2.3874802E5,3E0,2E0,-4.23603E-2,7.2154427E0,2E0,5E0,2.1838148E0,1.6818182E4,1.0315836E1,6.353572E-2,1.9767468E0,5.3601974E-1,1.0120033E0,-4.1884832E-2,1.0160856E1,-4.1874602E-2,-8.9419475E-3,4.3664902E-2,-4.2116504E-2,-1.7812898E-2,4E0,7.29927E-3,-4.6569005E-2,9.920922E-1,1.129848E1,-3.737199E-2,-4.2205945E-2,-2.3560092E-2,9.8920894E-1,4.310747E-2,4.3812893E-2,2.7525043E-2,1.36178285E-2,2.684717E4,-6.0467666E-1,4.6E1,3.0264444E0,-4.654936E-2,-2.2832299E-2,4.805928E0,6.353572E-2,-4.17768E-2,1.2E1,1E0,1.7515327E1,7.343505E-1,4.215868E-2,-4.1979834E-2,4E0,9.4E1,-4.7180854E-2,8.302524E-1,3.9589066E-2,9.6212365E-3,-4.0737454E-2,4.2242967E-2,2.9038694E-2,-2.7126031E-2,4.2922404E-2,3.1845335E-2,4.2268734E-2,1.5399661E-2,-4.8756883E-2,2.2076257E-2,4.0653788E-2,3.612776E-2,4.1765396E-2,-1.7800154E-2,1.4506047E-2,3.8081396E-2],"split_indices":[16,14,1,6,6,29,28,0,13,2,14,29,15,1,29,28,19,2,0,1,0,0,0,0,0,2,26,0,4,17,0,0,0,29,0,0,0,28,21,10,13,13,0,0,2,29,0,13,28,13,26,0,0,2,9,0,19,0,0,0,0,0,0,0,0,0,0,0,0,0,0,0,0,0,0],"split_type":[0,0,0,0,0,0,0,0,0,0,0,0,0,0,0,0,0,0,0,0,0,0,0,0,0,0,0,0,0,0,0,0,0,0,0,0,0,0,0,0,0,0,0,0,0,0,0,0,0,0,0,0,0,0,0,0,0,0,0,0,0,0,0,0,0,0,0,0,0,0,0,0,0,0,0],"sum_hessian":[2.569626E3,1.1855004E3,1.3841256E3,9.38605E1,1.0916399E3,6.901341E1,1.3151123E3,2.3462587E1,7.039791E1,1.0687988E3,2.2841051E1,1.339834E1,5.561507E1,1.2075651E3,1.07547165E2,5.9376728E1,1.1021182E1,3.261492E2,7.4264966E2,7.381855E0,1.5459197E1,3.4404893E0,9.95785E0,5.1892223E1,3.7228472E0,2.3261133E2,9.7495374E2,1.0189845E1,9.7357315E1,5.6241673E1,3.1350584E0,8.007988E0,3.0131934E0,3.2195572E2,4.1934633E0,4.033694E0,3.3481615E0,1.9692981E2,3.5681526E1,1.01282425E1,9.648255E2,8.980948E1,7.5478363E0,3.0187287E0,5.3222942E1,5.2391567E1,2.6956415E2,5.936196E1,1.3756784E2,1.62232E1,1.9458326E1,6.582825E0,3.5454168E0,9.5518256E2,9.642977E0,4.313542E0,8.549594E1,5.0076996E1,3.1459477E0,4.8686176E1,3.7053926E0,4.6759155E1,1.2602805E1,7.617127E1,6.139657E1,1.1766028E1,4.4571724E0,1.6029987E1,3.4283383E0,7.7889044E2,1.7629208E2,5.493867E0,4.14911E0,4.0521263E1,4.4974674E1],"tree_param":{"num_deleted":"0","num_feature":"30","num_nodes":"75","size_leaf_vector":"1"}},{"base_weights":[-8.1532E-3,-1.2208984E0,1.0597842E0,1.9250399E-1,-1.3434534E0,-1.1726552E0,1.149176E0,6.4971167E-1,-1.3102064E0,-1.3565956E0,-8.0980366E-1,1.7510457E-2,-4.0966704E-2,1.4819592E-1,1.2589219E0,-4.2529356E-2,9.7157294E-1,-2.3023374E-2,-4.171231E-2,-4.132867E-2,-1.2759172E0,9.283522E-1,-4.1394696E-2,-1.3051522E0,8.457308E-1,1.2810428E0,-4.29063E-2,1.1164335E0,-3.784995E-2,4.3055166E-2,-4.1441344E-2,4.1745894E-2,1.0213834E-2,-1.4781476E0,7.23845E-3,-1.0151634E0,1.1608877E0,1.0656662E0,1.3357271E0,1.3561587E0,5.9753907E-1,-4.1830253E-2,-5.0791685E-2,-4.497067E-2,1.1737495E-2,1.2559878E0,-2.8728802E-2,-8.100811E-1,1.2002326E0,1.3557155E0,7.489431E-1,3.4164533E-2,4.2479075E-2,-4.6386857E-2,3.6438763E-2,3.9761685E-2,9.28542E-4,4.4989113E-2,-4.297599E-2,3.777911E-2,-1.1779126E-2,4.1177355E-2,3.7627712E-2,-4.2015824E-2,3.4845714E-2],"categories":[],"categories_nodes":[],"categories_segments":[],"categories_sizes":[],"default_left":[0,0,0,0,0,0,0,0,0,0,0,0,0,0,0,0,0,0,0,0,0,0,0,0,0,0,0,0,0,0,0,0,0,0,0,0,0,0,0,0,0,0,0,0,0,0,0,0,0,0,0,0,0,0,0,0,0,0,0,0,0,0,0,0,0],"id":20,"left_children":[1,3,5,7,9,11,13,15,17,19,21,-1,-1,23,25,-1,27,-1,-1,-1,29,31,-1,33,35,37,-1,39,-1,-1,-1,-1,-1,41,-1,43,45,47,49,51,53,-1,-1,-1,-1,55,-1,57,59,61,63,-1,-1,-1,-1,-1,-1,-1,-1,-1,-1,-1,-1,-1,-1],"loss_changes":[3.2680818E3,2.04818E2,2.6789124E2,6.481028E1,7.2996826E0,1.7661644E1,1.4157007E2,4.8283062E1,6.3438034E-1,1.3588867E0,2.6495226E1,0E0,0E0,1.2950056E2,6.932654E1,0E0,2.0432014E1,0E0,0E0,0E0,6.35737E1,1.5704155E0,0E0,1.1234749E1,5.079187E1,1.3199341E1,0E0,7.0675507E0,0E0,0E0,0E0,0E0,0E0,1.2710571E-1,0E0,8.687826E0,1.5051292E1,5.9295044E1,1.0465942E1,1.0547638E-1,2.5245857E1,0E0,0E0,0E0,0E0,5.8858643E0,0E0,2.2777592E1,2.0721191E1,1.0849609E0,2.7328608E1,0E0,0E0,0E0,0E0,0E0,0E0,0E0,0E0,0E0,0E0,0E0,0E0,0E0,0E0],"parents":[2147483647,0,0,1,1,2,2,3,3,4,4,5,5,6,6,7,7,8,8,9,9,10,10,13,13,14,14,16,16,20,20,21,21,23,23,24,24,25,25,27,27,33,33,35,35,36,36,37,37,38,38,39,39,40,40,45,45,47,47,48,48,49,49,50,50],"right_children":[2,4,6,8,10,12,14,16,18,20,22,-1,-1,24,26,-1,28,-1,-1,-1,30,32,-1,34,36,38,-1,40,-1,-1,-1,-1,-1,42,-1,44,46,48,50,52,54,-1,-1,-1,-1,56,-1,58,60,62,64,-1,-1,-1,-1,-1,-1,-1,-1,-1,-1,-1,-1,-1,-1],"split_conditions":[4.479772E-3,3.563706E0,5.1005303E3,7.2154427E0,2.8551197E5,3E0,5.1062603E0,4.633292E4,3.9708113E4,7.009922E0,5E0,1.7510457E-2,-4.0966704E-2,2.0731539E-1,1.2E1,-4.2529356E-2,1.9767468E0,-2.3023374E-2,-4.171231E-2,-4.132867E-2,8E0,5.976792E-1,-4.1394696E-2,1.2640446E1,2.8463729E-2,1.0197158E1,-4.29063E-2,6.7691234E4,-3.784995E-2,4.3055166E-2,-4.1441344E-2,4.1745894E-2,1.0213834E-2,4.947763E0,7.23845E-3,1.2142857E0,1.5570707E0,6.0161543E0,2E0,6.0161543E0,1.204356E1,-4.1830253E-2,-5.0791685E-2,-4.497067E-2,1.1737495E-2,1.1430615E1,-2.8728802E-2,5.994846E0,9.893333E-1,1.3E1,1.10314336E5,3.4164533E-2,4.2479075E-2,-4.6386857E-2,3.6438763E-2,3.9761685E-2,9.28542E-4,4.4989113E-2,-4.297599E-2,3.777911E-2,-1.1779126E-2,4.1177355E-2,3.7627712E-2,-4.2015824E-2,3.4845714E-2],"split_indices":[16,14,15,13,7,29,3,7,22,3,14,0,0,26,3,0,28,0,0,0,3,29,0,1,10,1,0,7,0,0,0,0,0,3,0,26,28,3,28,3,1,0,0,0,0,13,0,3,24,13,7,0,0,0,0,0,0,0,0,0,0,0,0,0,0],"split_type":[0,0,0,0,0,0,0,0,0,0,0,0,0,0,0,0,0,0,0,0,0,0,0,0,0,0,0,0,0,0,0,0,0,0,0,0,0,0,0,0,0,0,0,0,0,0,0,0,0,0,0,0,0,0,0,0,0,0,0,0,0,0,0,0,0],"sum_hessian":[2.5231382E3,1.1815051E3,1.3416329E3,9.4203384E1,1.0873018E3,5.1563942E1,1.290069E3,7.232226E1,2.1881123E1,1.060835E3,2.6466854E1,5.0315466E0,4.65324E1,1.2757913E2,1.1624899E3,9.6551075E0,6.2667152E1,3.1136873E0,1.8767435E1,8.392572E2,2.2157771E2,6.47732E0,1.9989532E1,4.1299377E1,8.6279755E1,1.153094E3,9.395906E0,5.893883E1,3.7283213E0,8.213891E0,2.1336383E2,3.4513395E0,3.025981E0,3.720629E1,4.093086E0,1.2417748E1,7.3862E1,2.3427332E2,9.188206E2,4.0071865E1,1.8866964E1,2.7641376E1,9.564915E0,9.287141E0,3.1306076E0,7.077293E1,3.0890787E0,1.5598447E1,2.1867487E2,8.8826105E2,3.0559578E1,9.440986E0,3.063088E1,4.1471353E0,1.471983E1,6.68934E1,3.8795214E0,3.2472756E0,1.23511715E1,2.109361E2,7.7387743E0,7.5974786E2,1.285132E2,4.843579E0,2.5716E1],"tree_param":{"num_deleted":"0","num_feature":"30","num_nodes":"65","size_leaf_vector":"1"}},{"base_weights":[7.969981E-4,9.736001E-1,-1.2479362E0,-1.2132106E0,1.093998E0,-8.752243E-1,-1.3306693E0,2.2330968E-2,-1.3413346E0,1.2402968E-1,1.2149694E0,-1.2089428E0,4.2385235E-2,-4.085361E-2,-1.1907464E0,-2.2305528E-2,-4.125669E-2,-1.1985095E0,8.361606E-1,1.2479604E0,-4.2639893E-2,-3.7258902E-1,-1.2923524E0,-4.4365257E-1,-4.1178465E-2,-1.3619195E0,3.5956935E-3,-1.0691078E0,1.1332278E0,7.2927296E-1,1.2717069E0,7.489782E-1,-4.0006552E-2,-4.105125E-2,-9.803179E-1,-4.0606797E-2,7.433387E-1,-4.3458033E-2,-1.1214967E0,-4.4408076E-2,5.0173732E-3,-2.3574734E-2,1.2095914E0,-1.1528342E0,1.2167615E0,1.0610659E0,1.3087282E0,7.28945E-4,4.111042E-2,3.965151E-2,-1.2362239E0,1.2610894E0,-2.9017827E-2,-6.202E-3,-4.332128E-2,2.7436601E-2,3.9088022E-2,-5.7501826E-2,-1.1540211E-2,-5.635545E-3,3.994081E-2,-1.4638955E-2,3.8382936E-2,3.2904208E-2,3.9748035E-2,-4.0993746E-2,-4.077384E-3,4.2668458E-2,2.5519716E-2],"categories":[],"categories_nodes":[],"categories_segments":[],"categories_sizes":[],"default_left":[0,0,0,0,0,0,0,0,0,0,0,0,0,0,0,0,0,0,0,0,0,0,0,0,0,0,0,0,0,0,0,0,0,0,0,0,0,0,0,0,0,0,0,0,0,0,0,0,0,0,0,0,0,0,0,0,0,0,0,0,0,0,0,0,0,0,0,0,0],"id":21,"left_children":[1,3,5,7,9,11,13,-1,15,17,19,21,-1,-1,23,-1,-1,25,27,29,-1,31,33,35,-1,37,-1,39,41,43,45,47,-1,-1,49,-1,51,-1,53,-1,-1,-1,55,57,59,61,63,-1,-1,-1,65,67,-1,-1,-1,-1,-1,-1,-1,-1,-1,-1,-1,-1,-1,-1,-1,-1,-1],"loss_changes":[3.0194868E3,3.6799817E2,3.3224976E1,1.844806E1,1.552572E2,1.5151018E2,3.4589844E0,0E0,1.0740585E0,1.3857318E2,1.02569336E2,1.1859863E1,0E0,0E0,2.1952835E1,0E0,0E0,1.1227753E1,5.429351E1,1.403186E1,0E0,1.734446E1,3.361023E0,3.4978394E1,0E0,5.3635406E-1,0E0,6.721217E0,1.2284004E1,4.7244217E1,8.293945E0,3.1776915E0,0E0,0E0,1.8661413E1,0E0,1.2555187E1,0E0,3.612009E0,0E0,0E0,0E0,1.856842E0,5.8982544E0,6.7169075E0,5.6671555E1,2.8571777E0,0E0,0E0,0E0,3.8955116E0,3.6883545E-1,0E0,0E0,0E0,0E0,0E0,0E0,0E0,0E0,0E0,0E0,0E0,0E0,0E0,0E0,0E0,0E0,0E0],"parents":[2147483647,0,0,1,1,2,2,3,3,4,4,5,5,6,6,8,8,9,9,10,10,11,11,14,14,17,17,18,18,19,19,21,21,22,22,23,23,25,25,27,27,28,28,29,29,30,30,31,31,34,34,36,36,38,38,42,42,43,43,44,44,45,45,46,46,50,50,51,51],"right_children":[2,4,6,8,10,12,14,-1,16,18,20,22,-1,-1,24,-1,-1,26,28,30,-1,32,34,36,-1,38,-1,40,42,44,46,48,-1,-1,50,-1,52,-1,54,-1,-1,-1,56,58,60,62,64,-1,-1,-1,66,68,-1,-1,-1,-1,-1,-1,-1,-1,-1,-1,-1,-1,-1,-1,-1,-1,-1],"split_conditions":[4E0,5.25E3,9.8920894E-1,3E0,5.1062603E0,6.353572E-2,2.2662526E-1,2.2330968E-2,3.0585876E0,2.2033899E-1,1.2E1,4.6E1,4.2385235E-2,-4.085361E-2,1.104019E1,-2.2305528E-2,-4.125669E-2,3.0929972E5,2.8463729E-2,1.14E2,-4.2639893E-2,3.7E1,7.009922E0,7.009922E0,-4.1178465E-2,1.7963523E5,3.5956935E-3,1.2306848E4,2.7078E2,6.548205E-1,6.0161543E0,1.6240946E1,-4.0006552E-2,-4.105125E-2,7.907891E0,-4.0606797E-2,7.526173E4,-4.3458033E-2,2.646214E4,-4.4408076E-2,5.0173732E-3,-2.3574734E-2,8.513803E4,5.5768158E1,7.9E1,6.7600695E4,6.353572E-2,7.28945E-4,4.111042E-2,3.965151E-2,2.9939888E5,1.5384616E-1,-2.9017827E-2,-6.202E-3,-4.332128E-2,2.7436601E-2,3.9088022E-2,-5.7501826E-2,-1.1540211E-2,-5.635545E-3,3.994081E-2,-1.4638955E-2,3.8382936E-2,3.2904208E-2,3.9748035E-2,-4.0993746E-2,-4.077384E-3,4.2668458E-2,2.5519716E-2],"split_indices":[14,0,29,29,3,29,10,0,9,26,3,8,0,0,1,0,0,0,10,8,0,14,3,3,0,22,0,8,8,10,3,8,0,0,3,0,22,0,6,0,0,0,6,17,9,15,29,0,0,0,22,19,0,0,0,0,0,0,0,0,0,0,0,0,0,0,0,0,0],"split_type":[0,0,0,0,0,0,0,0,0,0,0,0,0,0,0,0,0,0,0,0,0,0,0,0,0,0,0,0,0,0,0,0,0,0,0,0,0,0,0,0,0,0,0,0,0,0,0,0,0,0,0,0,0,0,0,0,0,0,0,0,0,0,0,0,0,0,0,0,0],"sum_hessian":[2.4854644E3,1.3971455E3,1.0883188E3,7.281707E1,1.3243285E3,1.981265E2,8.901924E2,4.3956423E0,6.8421425E1,1.4696532E2,1.1773632E3,1.7298691E2,2.5139585E1,7.269389E2,1.6325346E2,3.9518905E0,6.4469536E1,5.1364548E1,9.560076E1,1.162901E3,1.44621725E1,1.5845791E1,1.5714113E2,3.2136185E1,1.3111728E2,4.5764618E1,5.5999274E0,1.2814872E1,8.278589E1,5.1232166E1,1.1116688E3,7.274043E0,8.571748E0,1.2582638E2,3.1314743E1,1.8231073E1,1.390511E1,3.296207E1,1.2802548E1,9.662626E0,3.1522455E0,3.0825067E0,7.9703384E1,1.0469532E1,4.0762634E1,1.6702255E2,9.4464624E2,3.4801347E0,3.7939086E0,3.0520837E0,2.826266E1,1.07393465E1,3.1657634E0,3.4610107E0,9.341537E0,1.9672747E1,6.003064E1,5.109105E0,5.360427E0,3.0042098E0,3.7758427E1,2.0564135E1,1.464584E2,6.803429E1,8.7661194E2,2.5168596E1,3.094063E0,7.359003E0,3.3803434E0],"tree_param":{"num_deleted":"0","num_feature":"30","num_nodes":"69","size_leaf_vector":"1"}},{"base_weights":[2.8623526E-3,-1.1829628E0,1.0251762E0,2.0282191E-1,-1.3088286E0,-1.1821473E0,1.1242123E0,-4.056795E-2,7.0805967E-1,-1.3248799E0,-6.4984673E-1,1.333998E-2,-1.3090589E0,1.1855807E0,4.3187773E-1,1.0306137E0,-1.1843609E0,-1.266076E0,-4.0492937E-2,1.08575E0,-4.040677E-2,-4.0138915E-2,-2.4405006E-2,8.173077E-1,1.2705162E0,8.9051765E-1,-8.446011E-1,-4.1660246E-2,1.2042576E0,-4.0366028E-2,-2.3407571E-2,-1.3024092E0,4.128247E-2,4.2926725E-2,1.7494721E-2,9.8805004E-1,-4.8083898E-2,5.365387E-1,1.278703E0,1.0136384E0,-4.7131363E-2,-1.6564364E0,9.0922624E-1,1.2613348E0,5.7819993E-3,-1.0701324E0,-4.037999E-2,-1.1648335E0,1.0718479E0,-2.699368E-2,3.706128E-2,1.3077625E0,1.0901171E0,-1.6864358E-2,1.1018265E0,-3.4111276E-2,-5.2923266E-2,1.647819E-2,4.0568847E-2,4.0615473E-2,2.7640657E-2,-3.920519E-2,4.083761E-2,-5.6382492E-2,-2.0325896E-3,3.4134492E-2,-4.9340084E-2,3.5820134E-2,4.0109765E-2,3.446648E-2,-1.616214E-2,1.09341405E-2,3.651329E-2],"categories":[],"categories_nodes":[],"categories_segments":[],"categories_sizes":[],"default_left":[0,0,0,0,0,0,0,0,0,0,0,0,0,0,0,0,0,0,0,0,0,0,0,0,0,0,0,0,0,0,0,0,0,0,0,0,0,0,0,0,0,0,0,0,0,0,0,0,0,0,0,0,0,0,0,0,0,0,0,0,0,0,0,0,0,0,0,0,0,0,0,0,0],"id":22,"left_children":[1,3,5,7,9,11,13,-1,15,17,19,-1,21,23,25,27,29,31,-1,33,-1,-1,-1,35,37,39,41,-1,43,-1,-1,45,-1,-1,-1,47,-1,49,51,53,-1,55,57,59,-1,61,-1,63,65,-1,-1,67,69,-1,71,-1,-1,-1,-1,-1,-1,-1,-1,-1,-1,-1,-1,-1,-1,-1,-1,-1,-1],"loss_changes":[2.9388787E3,1.9589697E2,2.8473535E2,7.346938E1,1.060022E1,1.1688103E1,5.2731567E1,0E0,4.323994E1,1.0368652E0,3.018899E1,0E0,4.2010498E-1,3.548584E1,5.965019E1,2.5552498E1,3.527441E-1,2.9107666E1,0E0,9.5086575E-1,0E0,0E0,0E0,8.893175E1,5.3356934E0,2.2822437E1,3.8511368E1,0E0,3.0930862E0,0E0,0E0,2.6257324E0,0E0,0E0,0E0,3.6362457E1,0E0,1.0745721E1,4.654541E0,1.0050735E1,0E0,5.4141617E-1,1.0966187E0,1.326828E0,0E0,2.7709396E1,0E0,5.696231E0,3.4810257E1,0E0,0E0,2.2321777E0,1.1971207E1,0E0,5.560486E0,0E0,0E0,0E0,0E0,0E0,0E0,0E0,0E0,0E0,0E0,0E0,0E0,0E0,0E0,0E0,0E0,0E0,0E0],"parents":[2147483647,0,0,1,1,2,2,3,3,4,4,5,5,6,6,8,8,9,9,10,10,12,12,13,13,14,14,15,15,16,16,17,17,19,19,23,23,24,24,25,25,26,26,28,28,31,31,35,35,37,37,38,38,39,39,41,41,42,42,43,43,45,45,47,47,48,48,51,51,52,52,54,54],"right_children":[2,4,6,8,10,12,14,-1,16,18,20,-1,22,24,26,28,30,32,-1,34,-1,-1,-1,36,38,40,42,-1,44,-1,-1,46,-1,-1,-1,48,-1,50,52,54,-1,56,58,60,-1,62,-1,64,66,-1,-1,68,70,-1,72,-1,-1,-1,-1,-1,-1,-1,-1,-1,-1,-1,-1,-1,-1,-1,-1,-1,-1],"split_conditions":[4.479772E-3,3.563706E0,5.25E3,2.3031328E1,2.8551197E5,3E0,2E0,-4.056795E-2,7.073215E0,2E0,5E0,1.333998E-2,1.6818182E4,3.07E4,7.626974E4,3.7801996E4,3.6820924E-1,1.0120033E0,-4.0492937E-2,2.564324E4,-4.040677E-2,-4.0138915E-2,-2.4405006E-2,9.8687685E-1,7.29927E-3,9.959747E-1,1.8809684E5,-4.1660246E-2,8.072565E-1,-4.0366028E-2,-2.3407571E-2,9.8920894E-1,4.128247E-2,4.2926725E-2,1.7494721E-2,2.0476124E0,-4.8083898E-2,5.886842E3,1.3E1,1.14E2,-4.7131363E-2,9.245207E4,4.026411E3,8.85E4,5.7819993E-3,6.353572E-2,-4.037999E-2,6.4E1,3.5E1,-2.699368E-2,3.706128E-2,4.0778685E0,2.4041631E5,-1.6864358E-2,-1.5966387E-1,-3.4111276E-2,-5.2923266E-2,1.647819E-2,4.0568847E-2,4.0615473E-2,2.7640657E-2,-3.920519E-2,4.083761E-2,-5.6382492E-2,-2.0325896E-3,3.4134492E-2,-4.9340084E-2,3.5820134E-2,4.0109765E-2,3.446648E-2,-1.616214E-2,1.09341405E-2,3.651329E-2],"split_indices":[16,14,0,27,7,29,28,0,13,2,14,0,15,0,22,7,19,2,0,0,0,0,0,5,26,4,15,0,4,0,0,29,0,0,0,27,0,8,13,8,0,22,8,15,0,29,0,17,13,0,0,27,7,0,19,0,0,0,0,0,0,0,0,0,0,0,0,0,0,0,0,0,0],"split_type":[0,0,0,0,0,0,0,0,0,0,0,0,0,0,0,0,0,0,0,0,0,0,0,0,0,0,0,0,0,0,0,0,0,0,0,0,0,0,0,0,0,0,0,0,0,0,0,0,0,0,0,0,0,0,0,0,0,0,0,0,0,0,0,0,0,0,0,0,0,0,0,0,0],"sum_hessian":[2.4240593E3,1.122227E3,1.3018323E3,9.3369675E1,1.0288574E3,5.5810894E1,1.2460214E3,2.2806688E1,7.056299E1,1.004146E3,2.4711445E1,3.9637227E0,5.1847168E1,1.1443689E3,1.0165246E2,6.037136E1,1.0191628E1,3.013198E2,7.028262E2,7.0236936E0,1.768775E1,4.863841E1,3.2087624E0,2.1488498E2,9.2948395E2,7.486278E1,2.6789682E1,3.957534E0,5.6413826E1,6.9423423E0,3.249286E0,2.973198E2,3.9999948E0,3.936645E0,3.0870483E0,2.0081747E2,1.4067505E1,1.0461295E1,9.1902264E2,7.139142E1,3.4713597E0,1.8355577E1,8.434106E0,5.328364E1,3.130184E0,4.7746506E1,2.4957329E2,7.4306374E0,1.9338684E2,3.3677247E0,7.0935707E0,7.953429E2,1.2367974E2,3.6950629E0,6.769636E1,3.5097752E0,1.4845801E1,4.901638E0,3.5324683E0,4.1420143E1,1.1863499E1,4.359017E1,4.156336E0,4.4013553E0,3.029282E0,1.888946E2,4.4922366E0,1.6413928E2,6.312037E2,1.1946071E2,4.2190275E0,9.326607E0,5.8369747E1],"tree_param":{"num_deleted":"0","num_feature":"30","num_nodes":"73","size_leaf_vector":"1"}},{"base_weights":[9.736804E-6,-1.1782591E0,1.0081894E0,2.0586005E-1,-1.299504E0,-1.1146554E0,1.1061156E0,7.082789E-1,-1.2726321E0,-1.3157121E0,-6.1777514E-1,2.7788125E-2,-1.2951323E0,-2.3538677E-1,1.1828109E0,-4.1571602E-2,1.0590451E0,-4.0449295E-2,-2.1643287E-2,-4.0010396E-2,